<?xml version="1.0"?>
<opencv_storage>
<my_nn type_id="opencv-ml-ann-mlp">
  <layer_sizes type_id="opencv-matrix">
    <rows>1</rows>
    <cols>4</cols>
    <dt>i</dt>
    <data>
      100 200 400 10</data></layer_sizes>
  <activation_function>SIGMOID_SYM</activation_function>
  <f_param1>6.6666666666666663e-01</f_param1>
  <f_param2>1.7159000000000000e+00</f_param2>
  <min_val>-9.4999999999999996e-01</min_val>
  <max_val>9.4999999999999996e-01</max_val>
  <min_val1>-9.7999999999999998e-01</min_val1>
  <max_val1>9.7999999999999998e-01</max_val1>
  <training_params>
    <train_method>BACKPROP</train_method>
    <dw_scale>1.0000000000000000e-03</dw_scale>
    <moment_scale>0.</moment_scale>
    <term_criteria><epsilon>1.1920928955078125e-07</epsilon>
      <iterations>300</iterations></term_criteria></training_params>
  <input_scale>
    1.7385917531007593e-03 -1.4859641360270173e-02
    2.0347284670244425e-03 6.7767192694261416e-03 2.1814011127611402e-03
    -3.1500514023458603e-03 2.3389533370211948e-03
    -2.2735845379200603e-02 2.4508986376918780e-03
    1.7821648731365942e-02 2.6088782405937101e-03
    -8.6534970682942761e-03 2.9937129584291307e-03
    9.6669384981681664e-03 3.1910820860348455e-03
    -4.0578292576388974e-04 3.2601602045881266e-03
    -4.2240384820900747e-03 3.5302491953654205e-03
    -5.9187638331703865e-03 3.7309680166084632e-03
    1.5302879308261555e-03 3.8100019144911442e-03 2.8236590902122761e-03
    4.1365366113864490e-03 3.6127222795416639e-04 4.1671529962278488e-03
    9.8378352863070844e-04 4.3114420452910916e-03 2.6047559735820273e-03
    4.4504704764247085e-03 1.1439980610180631e-02 4.7084374559042521e-03
    2.9632801767189270e-04 4.7938883219667550e-03 3.1371525913987041e-03
    4.9730462507282030e-03 -6.8751142050212204e-03
    5.0485070009531081e-03 -1.1704357197660777e-03
    5.2485454416178910e-03 2.0388454674298401e-03 5.3999351197255106e-03
    7.3928839100539162e-03 5.5499860551876667e-03
    -8.3220637252114163e-03 5.6711095295932136e-03
    1.9741957589636708e-03 5.7639414494934493e-03 6.0899604060987876e-03
    5.9130233910539105e-03 -8.0678807528154536e-03
    6.0131130303823117e-03 2.6445088516756491e-03 6.1081790282223446e-03
    1.5747021063229805e-03 6.2770070943930960e-03 6.6168099118073045e-03
    6.5184852497784012e-03 3.8747551588191780e-03 6.6784888323103437e-03
    1.2422611740169987e-03 6.7314692327875352e-03 3.5715946860194418e-03
    6.9773274551251287e-03 -6.5421061264281143e-03
    7.0704729274848332e-03 -1.0223109442028025e-03
    7.1717475364619782e-03 -7.2126279088860132e-04
    7.3478876916496533e-03 1.9813684747096599e-03 7.6177852783961978e-03
    -9.2309166875916768e-03 7.7545125648660089e-03
    -3.3002315194193385e-03 7.8052575652015239e-03
    5.2348900470107181e-04 7.8788341685028102e-03
    -5.8968242147306570e-03 8.0175581106372591e-03
    -9.0469901565152101e-03 8.1193619673836231e-03
    4.2451267557222566e-03 8.3703333339298983e-03 3.7983524523379883e-03
    8.5828750102979988e-03 3.2500606797117647e-03 8.7324118304183372e-03
    6.3211719041405849e-03 8.8412852427927034e-03
    -2.0657718387379234e-03 9.0007866070562492e-03
    -4.8188179704524662e-04 9.1325477534946308e-03
    -3.5496209876739222e-04 9.2891479744025562e-03
    1.6632336376833678e-03 9.5395543256846637e-03
    -4.9236650615598170e-03 9.5894573447652866e-03
    -3.6320091813130968e-03 9.6828841447364096e-03
    -3.1476058510473692e-03 9.9539585925225681e-03
    5.4049889004630317e-03 1.0073320730225311e-02
    -4.4788074245017649e-03 1.0152680769387084e-02
    7.0505066508321484e-03 1.0390114583810671e-02
    -1.3170008991010220e-03 1.0427748740822517e-02
    9.1878645778599932e-04 1.0644643364376469e-02
    -7.3490418022533911e-03 1.0751220139690572e-02
    2.1264163239902961e-04 1.0939576443185998e-02 4.3724931405108554e-03
    1.1048066028649798e-02 -4.4051733106434537e-03
    1.1056994948906778e-02 -3.3318009409713262e-03
    1.1279543211340519e-02 -1.2414340505066701e-03
    1.1503838577089904e-02 4.4832792994142397e-03 1.1709624608596782e-02
    5.4592729693081132e-03 1.1886894050504884e-02
    -5.6669260856520342e-03 1.2016657263776181e-02
    -4.9363674078608793e-03 1.2206466649411754e-02
    5.7365235357594753e-03 1.2319042174839590e-02 1.4034700979075716e-03
    1.2470075232457285e-02 3.2830996827724901e-04 1.2513522988691652e-02
    -7.0257666762736501e-03 1.2732528762281476e-02
    3.5239699738494517e-03 1.2818237712658078e-02 1.9238753891353477e-03
    1.2942203865690758e-02 -2.7338391690455064e-03
    1.3282024776767543e-02 6.6085101048058131e-03 1.3372048714413410e-02
    2.3576007045183430e-03 1.3459658676008733e-02 7.6001838439314481e-04
    1.3742312595669576e-02 -2.8188441917266034e-03
    1.4075508223295109e-02 8.8173882403141911e-03 1.4306526832017120e-02
    5.3778993588313104e-03 1.4359678643542326e-02 1.2538138166835254e-03
    1.4395161984573260e-02 -2.7024557636114634e-03
    1.4446460984891336e-02 -2.2416161692571383e-03
    1.4688632228123909e-02 -4.4020486427204280e-04
    1.4791018705701646e-02 2.7510604939573161e-03 1.4871225578362415e-02
    -3.6508084118021225e-03 1.4996014284047007e-02
    3.9142351756370495e-03 1.5255389441434406e-02 4.3466765064230570e-03
    1.5439219973968051e-02 -9.6355536516522190e-04
    1.5519723824615727e-02 -4.5748558263592528e-04
    1.5873438164261375e-02 -9.5995233995385882e-04
    1.5966748259895483e-02 -4.7563006561349760e-03
    1.5993374774928900e-02 -2.0347709554136891e-03
    1.6240037383899304e-02 -3.8623934111439921e-03
    1.6381326272592776e-02 9.4919710370526924e-04 1.6508847179903027e-02
    1.9472333338450480e-03 1.6767042463923017e-02 3.6914771759836511e-03
    1.6765601273148075e-02 -7.5896411946169834e-04
    1.7028810678891369e-02 5.0283723053579522e-03 1.7031919779377007e-02
    -3.9274254214917174e-03</input_scale>
  <output_scale>
    5.2631578947368418e-01 4.9999999999999994e-01 5.2631578947368418e-01
    4.9999999999999994e-01 5.2631578947368418e-01 4.9999999999999994e-01
    5.2631578947368418e-01 4.9999999999999994e-01 5.2631578947368418e-01
    4.9999999999999994e-01 5.2631578947368418e-01 4.9999999999999994e-01
    5.2631578947368418e-01 4.9999999999999994e-01 5.2631578947368418e-01
    4.9999999999999994e-01 5.2631578947368418e-01 4.9999999999999994e-01
    5.2631578947368418e-01 4.9999999999999994e-01</output_scale>
  <inv_output_scale>
    1.8999999999999999e+00 -9.4999999999999996e-01
    1.8999999999999999e+00 -9.4999999999999996e-01
    1.8999999999999999e+00 -9.4999999999999996e-01
    1.8999999999999999e+00 -9.4999999999999996e-01
    1.8999999999999999e+00 -9.4999999999999996e-01
    1.8999999999999999e+00 -9.4999999999999996e-01
    1.8999999999999999e+00 -9.4999999999999996e-01
    1.8999999999999999e+00 -9.4999999999999996e-01
    1.8999999999999999e+00 -9.4999999999999996e-01
    1.8999999999999999e+00 -9.4999999999999996e-01</inv_output_scale>
  <weights>
    <_>
      -2.0583286493909725e+00 -7.7446334378275661e-01
      -1.8318987852526372e-01 4.9361047793280649e-01
      -1.7200820468622352e-01 2.3582626116180189e-01
      -1.0173421067207131e+00 -6.7062956838728838e-01
      2.7753092059778373e-01 -5.6773009600646229e-01
      2.9432187829722914e-02 -5.1484907659163426e-01
      -4.6086392277614019e-01 -1.9049602002946903e-01
      -7.7571856417444340e-01 -5.4054958542356768e-01
      -6.1108590849036096e-02 7.8969043607917211e-01
      5.3932876006880204e-01 -5.5355780684972274e-02
      -1.2078115171842745e+00 -1.5901861930116457e-01
      2.2310436683911206e-01 1.3177434606149703e+00
      -1.0859490486791887e+00 -2.8187730261667471e-01
      -5.5077564392887879e-01 2.8308826832043860e-02
      -2.9909130385495869e-01 1.2141568050353961e-01
      -3.5766777596026433e-01 3.3747291285963738e-01
      -1.0251417815103760e+00 -1.0154505101958002e+00
      2.3365717017638901e-01 -3.2787523202173124e-01
      -3.7130021596282353e-01 4.1492405474979860e-01
      -1.6828598325646221e-01 3.1806459754906635e-01
      -1.0469711606822720e+00 4.2385293247588451e-01
      -1.2355107169499936e-01 -7.4836056910919402e-01
      -2.4636845606235291e-01 6.2099840809455797e-01
      -1.4856977309767283e-01 -4.9292393618891128e-01
      5.6179507048405941e-01 -1.3813919754744428e+00
      -7.3449085408077064e-01 5.0576115481453909e-01
      -1.6814266370963246e-01 1.3721809824729198e-02
      3.3950017194206505e-01 -2.2497495961470040e-01
      3.9124473488430406e-01 4.6342190078585149e-01
      -3.2908470494906272e-01 3.4924012293747875e-01
      -4.8025906020198676e-02 -1.6137671354993849e-01
      -6.8569047422035829e-03 -1.1395316591180321e-01
      1.1586341217812273e+00 1.0270100720607371e+00
      -3.5649079769247208e-02 3.5692952141917478e-01
      1.0121751008320621e+00 4.2932950252599167e-01
      1.2125899270232890e-01 -5.3110988567224837e-01
      5.4118411545275813e-01 -2.9467889966593436e-01
      -2.7320608599714752e-01 -3.6357243301056957e-01
      4.2973113689945336e-01 3.6266400826765283e-01
      -5.5258333682000615e-01 8.6780784655536972e-02
      -3.4546349714600777e-01 -1.7526017791034774e+00
      4.4717057407360133e-01 9.6678543428182817e-01
      -8.3865990969435145e-02 1.2809357810860617e-01
      -1.4789287633362466e-01 4.1522480797707445e-01
      -3.8889390375201627e-01 1.0843506756817298e+00
      -5.4207715010723001e-01 -4.0958346317096694e-01
      9.1180123755109843e-01 -4.1825817043192159e-01
      1.7093600784502112e+00 -3.1874749192889601e-01
      -6.2393123610847334e-01 -1.4954349144196577e+00
      -1.5565358945208529e+00 9.8602935381541194e-03
      -3.6106252239517928e-01 -7.9539868841214098e-02
      -1.9933048890625402e-01 -4.8210824837358862e-01
      -1.1781710197415851e-01 -1.2284359373144046e-01
      -2.6377037912951953e+00 -6.2074301746432214e-01
      -4.1043535987235846e-01 -7.3789771628329526e-01
      8.6997915012095295e-01 -1.5996989004297368e-01
      -1.8829536196006041e-01 -4.4255076311346531e-01
      -3.3999700181385623e-01 -1.0620494218465577e-01
      3.7378167316499528e-01 -3.0558104827482430e-01
      -2.9351097964339506e-01 1.0760106218601037e-01
      2.4678809647623425e+00 2.3639101626923123e-01
      6.6458787291186622e-02 2.4743082984470177e-01
      8.0010649598746741e-01 1.7535081389322751e-01
      -1.6065612318355707e-01 -1.0613848646017056e-01
      1.0399401296632231e+00 7.1296522366414150e-02
      2.4900299814704022e-01 9.5293786567284780e-02
      -4.5876110998102460e-01 2.3942374632929347e-01
      -5.6622585002292287e-02 2.4408024728562694e-01
      6.5832517082050845e-01 -1.5804086331323888e-01
      5.2697658147475790e-01 -1.6614891172604078e+00
      2.2431192067128010e-03 -4.5065938869106661e-02
      -2.4662613304573811e-01 -1.7398878963252659e-01
      -2.3716003845571662e-01 2.1609329078677388e-03
      6.3992654973399538e-02 -2.7049075169215520e-01
      1.0164417104001360e+00 9.6974191830084644e-01
      -1.0203161256558968e+00 -5.3814880606224957e-01
      -6.8726348176373642e-01 2.0768672045927480e-01
      -7.6343597317673295e-01 -7.5117191019559729e-02
      -2.0159155904908788e-01 -8.3543818160220473e-01
      9.4433894506928284e-01 -9.2812516682472604e-02
      -7.0667153328267296e-01 6.5008861234276727e-01
      4.0741628284569698e-01 -4.4560424979886432e-01
      -6.5592531681600175e-02 2.8608813350959528e-01
      -5.9939504875250527e-01 -5.3895864980919239e-01
      3.5927131469269952e-01 4.5368812037967793e-01
      1.9328496958677341e-01 -1.5472531338895554e+00
      -7.9583638272728285e-01 -1.3572493451046985e-01
      1.2048208845652959e-02 8.3314219926908928e-01
      2.4545292122613201e-02 -9.4894269609670134e-01
      9.4461408180655582e-01 5.1066645117621490e-01
      -4.6203524516147748e-01 -3.5492340542530992e-01
      -3.2133072578807459e-01 -3.3047742617528969e-01
      1.3954670756409060e+00 6.0628605640013300e-01
      1.5161891684822812e+00 1.6555702006713705e-01
      1.8425239842897210e-02 -3.5075980055388556e-01
      -1.4156901560455808e+00 4.5962920140192559e-01
      1.5237604077310838e+00 2.9249271376429037e-01
      5.4042024615306050e-01 2.0883736967010580e+00
      -7.4410270882729346e-01 6.2625698209740721e-01
      -1.3626357293120908e+00 -4.8505615641902339e-01
      3.9009735003488735e+00 1.5753312245940070e+00
      -8.7646040187821039e-01 2.5686774742384219e-02
      3.4495712920091459e-02 7.1766442621116333e-01
      -5.2942257428723782e-01 -1.8264323132529206e-01
      3.6377463397451348e-01 3.9569605784550765e-01
      -1.7165754174941575e-01 9.9814150854106914e-02
      -1.3733976715192000e+00 5.3565911535544208e-01
      3.0590315768989029e-01 -4.5688838477124194e-01
      -2.8382775354377787e-01 -8.2898088284937188e-01
      -1.7981414347010546e-01 8.2887477740956150e-01
      -7.4437297223073640e-01 -2.7781794695584244e-01
      -1.4734843425701719e-01 1.5525455716557957e+00
      -4.4069202084898160e-02 -1.8258562976431461e-01
      1.8325586061157402e+00 2.6652016716886323e-01
      -1.4300921289206389e-01 -1.6676740394348669e-01
      2.5754663008882217e-01 5.5653613415594760e-01
      -6.8584367716912953e-01 1.0464004073054729e+00
      1.4243879705509099e+00 1.3144713749902193e-01
      -1.0110339976395364e+00 2.7402903139537987e-01
      -8.4075163355335125e-01 9.1058659654423313e-01
      -8.1180875548765546e-02 -3.7725859670546202e-01
      2.9692267619488277e-01 5.4581653408364128e-01
      1.3643035796843965e+00 1.7217236796319152e-01
      -6.1733969033399039e-01 -9.5915495128855988e-01
      2.7234754597700177e-02 8.4506815454760720e-01
      -1.3456020501285618e-01 9.9641528956176884e-01
      -3.3302562808143088e-01 -6.8173508971584207e-01
      1.5613164304304417e+00 8.9703224160179085e-01
      5.9578741324549311e-01 4.3338152898302527e-02
      -1.0198995638993311e+00 6.9137559637704105e-01
      -7.7987891856124480e-02 -3.8299476952778805e-01
      3.1544496914687759e-01 1.3897229537102642e+00
      -6.0696202236485886e-01 -9.4264549715932844e-02
      5.2120951270076943e-01 1.6414856973973257e+00
      1.2782487287370481e+00 -8.4423253518827890e-01
      -5.5962520965763085e-01 1.0544902372093474e+00
      -2.9298420673468606e-01 9.4164792405960651e-01
      -7.6183595686069402e-02 -2.7165952149764011e-01
      5.9035648777408811e-01 -2.4294052575260958e-01
      8.8736826842998173e-01 7.8276228688002447e-01
      -1.3468471789579006e-01 -7.4394340918195501e-01
      -3.5279968768672654e-01 4.3575715239582918e-01
      6.5868437351685438e-01 -3.3457490495058734e-01
      -2.3483062271365227e-01 7.0787803871573338e-02
      -1.3018663787112300e-01 -1.1616202654538612e+00
      -7.1924798807049017e-01 8.7833727726699329e-01
      -1.0963493160937214e+00 -3.4663303476568524e-01
      -2.9061840725322075e-01 1.1653077773591975e+00
      -2.6828296793799888e-01 4.0633896605323483e-01
      2.2196285231553398e-01 -4.3590018858920143e-01
      1.0075081689971848e+00 -8.9721462050825773e-01
      2.8791496834784103e-01 3.8851757357915621e-02
      3.2975839509520610e-01 -1.2472512196266430e-01
      7.7708490444250233e-01 4.8890156262331251e-02
      -4.6541379291008950e-01 -5.2646124965675146e-03
      -1.0393424778724412e+00 -1.2307595880060944e-01
      -4.3588401283073980e-01 7.6158822705917639e-01
      5.4902153248846808e-01 -6.3904537259889294e-01
      -4.2327187551679157e-01 1.0672991648306833e+00
      -1.3315595135962055e+00 -7.8198786059813274e-01
      -2.3357640669099551e+00 -2.0673592590550376e+00
      1.8708915250780081e-01 -1.6944341549020842e-01
      -9.8434441069607595e-02 -1.2480550364075263e-01
      4.6530473779873760e-01 -8.2370627876207514e-01
      3.5782344574648378e-01 2.7825443495022301e-01
      -1.1074607064902642e+00 8.3942965349464971e-01
      6.8110047693159481e-01 5.2729779766530849e-01
      -8.7240422448083543e-01 5.9670889920878989e-01
      1.4202932510381874e+00 -4.4654002743141274e-01
      2.1430080530355247e-01 2.8377672373075153e+00
      1.4415752248592944e-02 -3.0905650037714766e-01
      -2.0823183439402959e-01 -1.2110095542390809e-01
      -6.4105572969797880e-02 -7.8928068647722460e-01
      7.7513895575444247e-01 -1.1797712301502183e+00
      1.1197600702115591e+00 -1.1361489530200433e-01
      6.1582894038941283e-01 1.0390770091398402e+00
      -1.3363408463225599e-02 6.5789689092631441e-03
      -9.7409719366498659e-01 -7.1273546924861930e-02
      4.8627802312966079e-01 -1.0618664711818304e+00
      1.3162104397972740e-01 -3.8745151608361583e-01
      -5.5531789899526218e-01 3.9808773465341990e-01
      2.5791194967422060e-01 7.3861205502752691e-01
      4.9945129787024639e-01 -3.1455172824027661e-01
      -9.1954464210950615e-01 9.1321855796166729e-01
      -5.9749078203563755e-01 -6.6220600555973497e-01
      5.4304090388696297e-02 4.8472476390884617e-01
      4.0057413164373851e-01 -9.1691216231824879e-01
      5.6599694116846999e-01 1.5180598539989458e+00
      9.8756330929054925e-01 7.8355466895271431e-01
      6.5790670298954379e-01 1.0635257897258261e+00
      -6.1954515071719056e-02 2.0825955079710073e-01
      1.1493777217495669e-02 2.1165284928457881e-01
      1.7142182286757108e+00 9.4882881021973409e-01
      -1.9925063373131331e+00 -1.1991032876160865e-01
      -6.4564707905375662e-01 9.1754832864121907e-02
      1.2543465091238228e+00 -1.0545128137165733e+00
      1.9970337101823440e-01 2.5680515328754344e-02
      -3.8398858275619857e-01 4.3248227611735406e-02
      6.2728027434966790e-02 -2.2562071888280558e-01
      2.9628303132247080e-01 1.4406353105289700e+00
      1.8872955012162580e+00 -3.0033243817626953e-01
      -4.4645996899405749e-01 1.8601531221866521e-01
      7.1829362478722480e-01 -1.1828109608997946e-01
      1.6860494664017742e-01 -2.5261298730352733e-01
      3.5888124737494104e-01 6.9240021680460798e-02
      -1.6371230711018925e-01 -6.7995766205541242e-01
      -7.6584591541554101e-02 4.5204876110540787e-01
      -1.8649966730960488e-01 1.7741467473291045e-01
      1.8487110198373563e-01 -7.9830669595307191e-01
      -3.6169265655640476e-01 -3.2600480256082737e-01
      -5.5138593624583239e-02 -4.1296810019941077e-01
      -3.3542179495541435e-01 -6.2168127128466866e-01
      -9.5388861811947068e-01 -4.3750938290801733e-02
      -5.2093556462502644e-01 5.0553668379869398e-03
      4.9142157067112791e-01 2.2550923854448851e-01
      3.7462718578883608e-01 5.9391360616608857e-01
      7.4715818638295106e-01 9.9216924946580842e-01
      -1.0627765876769577e-01 4.7235315593634941e-01
      -5.3136490433441907e-01 -1.4719189149862166e-01
      1.3615046115426255e+00 -4.4923383331635752e-01
      -1.0756989940105548e+00 -4.6568049799685063e-01
      -2.2796946477239466e-01 -5.7087056955783333e-01
      -1.1089315354690450e+00 4.8675761673441320e-01
      6.3168144840414414e-02 8.3896407239465365e-01
      9.3902705985073456e-02 -1.7017372978861034e-01
      -8.8105503465356033e-02 6.6519077655368009e-01
      -3.0762456427972590e-01 2.5831729141992921e-01
      8.3631297929939563e-02 2.9745204086055216e-01
      7.4261321709277317e-01 -2.2838463249381097e-01
      -1.0374260070044672e+00 9.5147442123011239e-01
      -1.1418490212770067e-01 4.1745662546830392e-01
      2.3063851461803617e-01 -1.5234713416475183e+00
      -1.8030343702049351e-01 -8.7462605343155209e-01
      -1.4685647172859370e-01 -1.1204335474377790e-01
      2.3671789186412204e-01 3.5508230035463911e-01
      -8.1418304867158298e-01 -5.8393989276372571e-01
      -4.4029269335630679e-02 7.0146997700447578e-01
      -1.1949084526586673e+00 8.1454135283086926e-01
      -2.4240670182601737e-01 1.3701246258524893e+00
      -4.2968943609647170e-01 1.9710261556361641e-02
      -1.4584058870996991e-01 3.1448597598401806e-01
      4.4986914238693582e-01 5.6704578437912512e-01
      4.9658832087402832e-01 3.2721110017389432e-01
      -4.9499157463084248e-01 4.5605062514674505e-01
      -1.2716216107684680e-01 9.8186743305791135e-01
      -2.4181104054378014e-02 4.3319739608190455e-01
      8.4363750435000362e-01 -5.2414414870703141e-01
      8.6135121365483724e-01 -6.0096575517451378e-01
      5.5124046336004340e-01 1.1211328580131479e+00
      4.7473693023092522e-01 3.6021989508339871e-03
      -6.8349152641851907e-01 1.9243473155231335e-03
      -5.8307364655812832e-01 -7.8308046556940403e-01
      -3.9961190165898253e-01 -3.9872110303749264e-02
      -2.3172976078886634e-01 4.7705374799369260e-01
      3.6525448095631458e-01 5.0812469931826232e-01
      3.5965761004207719e-01 -1.0589500572360511e+00
      -2.8682794738866069e-01 5.3609940691523618e-02
      1.5427635808662632e-01 2.6068081463287374e-01
      -1.6766159438815856e-01 -3.1319872345799282e-01
      -5.5733681931845769e-01 4.9883990822811136e-01
      -3.3564180624070827e-01 -4.7098498067456429e-01
      1.3156955413292534e-01 2.8331381912263764e-02
      9.1010725000622672e-01 -9.3298009888185582e-02
      -7.9688767073058647e-03 -2.7953761951806183e-01
      -1.3922762840478856e-01 4.2503947672875653e-01
      9.0906291821586971e-01 2.1876285969323153e-01
      1.9509522763243384e-01 1.5646843185576348e-01
      -2.8982669639432129e-01 3.2406990103394556e-01
      1.9523826471967537e-01 3.3713210489689444e-01
      -3.9904295299800624e-01 1.4440798469281710e+00
      -1.1848240001146662e-01 -2.1145851862914611e-01
      5.6132590005981786e-01 3.7931000299536322e-01
      7.7755013537930973e-01 -8.4323437759428715e-02
      -1.5534293772333395e-02 -4.8005470678330991e-01
      3.3844655896305878e-02 -5.9877681727116616e-01
      -4.8005604749512748e-01 4.9709357220911532e-01
      1.0790835849163659e-01 1.1410723763066941e+00
      -9.5349219419511411e-01 5.8695768057056640e-02
      -9.4137147290449563e-01 -1.2846577787099203e-01
      -8.0692794966654346e-01 -2.4507023011047452e-01
      -8.2108738471233544e-01 4.4527093770619930e-01
      3.5312187080990898e-01 -8.6040413193552590e-01
      -1.3338991047018009e-01 6.9593846915099858e-02
      9.4885499434753862e-01 1.0811132139192918e+00
      -8.1203538048279988e-01 7.4802478427851526e-01
      1.0261993781076966e-02 -1.4534907160569183e-01
      -1.0249122080083813e-01 -5.8799210770845389e-01
      3.7571917184960002e-02 1.4412080043577751e+00
      1.4666189977005920e-02 3.7442598588036959e-03
      2.0935832018768025e-01 8.3834514709470642e-01
      5.6759892711271603e-02 -5.0468029178182872e-01
      4.3249787128878843e-02 -2.2259945136192449e-02
      5.6573940565356307e-01 6.7145875626629414e-01
      5.5200606520181439e-01 2.8788025015709821e-02
      -2.9212122105945321e-01 -6.2877335881986240e-01
      5.0744491033686678e-01 -2.2460396585818121e-01
      -3.9224290594648575e-01 -5.9322406160161012e-01
      5.9315909191435578e-01 3.2959789028694347e-01
      9.6000035205460443e-01 7.0145597508198473e-02
      -5.4069664400871276e-01 8.4038627597152282e-01
      -1.5391581630030859e+00 -2.2577364850422202e-01
      7.6862207772313651e-01 1.9467078973188622e-02
      -3.6470524926597553e-01 2.7953482573163202e-01
      -1.2266753812055295e-01 6.5275893051779954e-01
      4.9831103904327155e-03 2.2280847060788081e-01
      -3.3260444597705169e-01 -2.6542742050483917e-02
      6.4288856371022052e-02 -3.4054243714837218e-01
      2.3609108225867281e-01 -2.9737313681883509e-01
      -6.7431374197170368e-01 -2.6138344201896818e-01
      -5.0281328940600289e-01 1.8148879357940845e-01
      3.8037513404949286e-01 1.0453488997694740e+00
      -3.1752238975030614e-02 4.3603344760883200e-01
      -3.4118525689639323e-01 2.6006912997379855e-01
      6.9269353214317408e-01 5.9276115102648597e-01
      1.5068231280074770e-01 -3.6698484706731616e-01
      1.5756250470388197e-01 -2.2357761616426566e-01
      -2.3856166519898960e+00 -1.2707260180578654e+00
      -6.7415099149287061e-01 -5.8960929319648170e-01
      2.9677656425836707e-01 2.5377747449489058e-01
      -1.8671009356246238e+00 9.5757598877337466e-02
      1.2800760546179768e+00 -2.6067203072218259e-01
      -6.0575001091547098e-01 1.2444813534614774e+00
      1.3537028928664976e-01 -7.0307652851461766e-01
      2.2896617702823696e-01 -4.5211896223516401e-01
      5.0590432868633095e-01 2.0435119211695305e-01
      -3.6545928713703735e-01 2.5566479724148172e-01
      -2.3418723236546299e-01 8.8966202780282430e-02
      -1.4561966969398787e-01 -5.4574737937970863e-01
      -9.6620932706817553e-01 -1.5489321720159585e-01
      2.2564616844180177e-01 -6.8724505922184687e-01
      5.0946472895602979e-01 -3.0918656094948257e-02
      -7.4365014342757374e-01 2.0428608111775768e+00
      1.5376002952230158e-01 -1.4203839276257865e-02
      -1.0084231771583210e+00 5.4705027576055265e-01
      -6.9408333073323991e-01 3.2484555497336598e-01
      6.7425144277333288e-02 5.0748527788101161e-01
      -8.1143726510395031e-01 -1.9151718717677738e-01
      2.3400977505759427e-01 6.3274606180120951e-01
      -4.5790232397043795e-01 -1.7634036079397153e+00
      6.6581785094193835e-01 -4.3501724833929978e-01
      2.2731176041932585e-01 -5.7830554036520465e-01
      1.0121128688828869e+00 -7.2779552736459119e-01
      8.1966274555675855e-01 -1.0061242861205855e+00
      1.2489239402159316e-01 -1.5244770289921630e+00
      -4.7797000013284352e-02 1.8273909099809865e-01
      -6.6317497785369717e-01 1.5882350355314773e-01
      -1.6864129727226858e+00 9.9584266119859238e-02
      -7.4564153902848540e-01 -8.8334169410864999e-02
      1.8092374432119762e-01 1.2458120694673680e-01
      -3.1856233535378892e-01 -1.9515703291231293e-01
      2.9139525398754268e-01 5.9588269617274725e-01
      1.0153149812178230e+00 -9.8631617222134926e-02
      3.5069280425101196e-01 -5.7946413938263286e-01
      2.9554982718635237e+00 -1.0681233132324988e+00
      -3.1734311154608447e-01 -5.7079378956113247e-01
      -1.7447040315279663e-01 -1.5465086358281899e-01
      1.3213975207199040e-02 -2.0618219122756726e-01
      -7.3523912202799624e-01 -1.5405070533107904e-01
      -8.3355807351435177e-02 -2.1919941730425432e-01
      2.8055108917720634e-01 -8.2143129838636353e-01
      4.7773496105397462e-01 1.1166125755279115e+00
      2.3590511120391164e-02 -2.0073299889599350e-01
      -4.3854761035311635e-01 -9.4311453556588165e-01
      -1.2039532131197547e-01 -2.2157694837926908e-01
      1.6198556624759389e-01 -1.6461082769910855e+00
      1.0236683982053920e+00 -2.2880396679355358e-01
      -2.6099580264727557e-01 -6.1330346441624228e-01
      1.6577476672786434e-01 -6.3983815734821825e-01
      3.0456646612586697e-02 4.0744338977158800e-01
      5.8994860153548268e-01 -2.4295961679261553e+00
      -3.9283115288442255e-01 5.0428389836034440e-02
      -3.9679753557967989e-01 4.8468699746445665e-01
      3.4863926997493627e-01 6.5532094668488278e-02
      -7.6458072784569919e-01 5.6592263449379632e-01
      -2.6427423722736831e-01 -5.5739490520328200e-02
      6.9473446661730431e-01 -2.7928655028780613e-01
      1.7650424294285869e-01 1.3176519912029364e-01
      -1.2085749063892635e-01 -3.6399192027261018e-01
      4.0997451369322929e-01 -1.6491409174878471e-01
      -4.3085557318111596e-02 1.6057139176182691e-01
      9.9575871059506083e-01 -1.3466566255751741e-01
      -2.0900316197901031e-01 6.8902810090732969e-01
      -3.7764081366979435e-01 -3.7541336432055378e-01
      -4.5878757106123802e-01 8.1859466220510302e-01
      7.8209124658187401e-01 -8.0246537403716423e-01
      -6.6508698204166761e-01 5.4129309329164921e-01
      1.6734881408946078e-01 8.4193708917596199e-01
      1.4328103502732015e-01 -1.1220795789286166e+00
      -4.9601280472119924e-01 3.2028899237094155e-01
      1.2564842566649764e-01 -1.1661079814274162e+00
      5.3625125846662083e-02 -1.3319201849754961e-01
      -3.8627940051483678e-01 5.3115755527618984e-02
      2.5127004640206929e-01 -6.5256225879464869e-01
      1.7582160240577768e-01 -4.2960507454802865e-01
      3.5457816419431654e-01 3.9176737859223409e-01
      -1.1793786798318817e+00 2.5327731515683166e-01
      9.0107892206433282e-02 8.6641637019360185e-01
      -8.8021990287593921e-01 2.2158420629591927e-01
      -1.4832282410284008e+00 -4.8978090611228309e-01
      -2.2813353719601945e-01 3.2785330084613867e-01
      1.0279565938457711e+00 -3.9820786979819423e-01
      7.7020425181867748e-03 -5.4488896406674125e-01
      2.6254640108138788e-01 -4.3359272461861498e-01
      5.3353433415204621e-01 -7.6534346676499532e-01
      5.7515857763012590e-01 -3.7756881390604324e-01
      -6.8352976975030666e-01 1.9327759691954519e-01
      1.1456123328192273e-01 3.7351663253402972e-01
      -1.7922063658803020e-01 -7.8769895120238476e-01
      -1.1755654446590671e+00 1.7067875551755124e-01
      6.4746717167392098e-01 -3.9983744392367088e-01
      -1.5368270840754219e+00 5.3419077802363368e-01
      -5.2289881169513486e-01 1.2989260646898477e+00
      -4.0913783422889533e-01 4.3556536461168821e-01
      6.6839777773703229e-02 -4.1721305218009885e-01
      -1.1926655423904911e+00 9.6055036770362789e-01
      -5.5132455927310697e-01 1.2367202790544807e-01
      -1.4605590212816493e+00 7.8444767636433821e-01
      -6.5057563394785067e-01 -1.5535656762922376e-01
      -6.0395358120675438e-02 -1.3358633631658731e-01
      -6.1990178004165830e-01 1.1600477097552327e-02
      2.4227634904090889e-01 1.1349595201208718e+00
      -5.6144819509381771e-01 7.7186332218542253e-01
      -1.4408333647983235e-01 -4.4667768577929157e-01
      -4.7799117855755252e-01 -5.1280603423665383e-01
      -6.7010817040410198e-01 -5.1184700758788659e-01
      -5.6721462883103459e-02 4.4959400704752073e-01
      1.6336034494607771e-01 -3.7725870767238052e-02
      2.2414194643112648e-01 5.9046761358612043e-01
      -1.4268142508730933e-01 7.1747009194118205e-01
      1.0852962574980585e-02 -6.6421493138195808e-01
      1.8547575140704248e-01 -7.6192191105958862e-01
      -7.4369372772718301e-01 2.6378325984071127e-01
      1.0144543833023651e+00 2.8107950825655120e-01
      -5.5214906978386269e-01 1.1279808348163511e+00
      7.8715897348058261e-01 -3.1306498030198728e-02
      -1.0581475078932490e+00 1.2553643845490665e+00
      3.9335884367502078e-01 -9.1623356923375932e-01
      -9.1059125151160625e-01 -3.4638312879848804e-01
      -1.0064521052084940e-01 -3.0128925747228813e-01
      -1.8666225903274727e-01 6.3209329132735292e-01
      1.4267580556456241e-01 2.4868628192112877e-01
      2.5366227034604155e-01 -2.0544532315553010e-01
      1.0917479702687740e+00 -9.5842245450957519e-01
      5.4354431698113193e-01 -3.0327748068874427e-01
      6.3490283894462277e-02 -5.1248896723981840e-01
      3.5826034925836625e-01 3.7600432386849381e-01
      -6.4348513892162862e-01 -7.3591896669635171e-01
      -2.6736029704201536e-01 -8.8264640252193927e-01
      -3.0393879134947144e-01 -3.2514168769017154e-01
      2.2782837001660325e-01 -4.8890577249379341e-01
      -4.8128908566315465e-01 5.2976513057210517e-02
      1.2508469336265635e-01 -5.9453058846744355e-01
      2.1924900636355477e-01 3.2573120701110586e-01
      5.7055957863251405e-01 -3.2262026726033949e-01
      -3.0320734453261916e-01 -6.7786384868691008e-01
      -2.9651763703102152e-01 -4.9941693319303465e-01
      -4.3377769494113338e-01 -5.0054592509343288e-01
      -9.6882598309751500e-01 1.0558231234922616e-01
      5.0289995845475866e-01 -7.5094512433456870e-02
      -3.4475101146638021e-01 -3.5730769566697733e-02
      1.7586865957815820e+00 9.6542048545096026e-01
      -4.3576849617262614e-01 5.1272290440582791e-01
      -1.2049017097906517e-01 4.7992543249693376e-01
      2.6421056984126218e-01 3.6175909185223384e-02
      8.1306774891228928e-01 -6.9835395509542531e-01
      4.8262624238744944e-01 -3.0144984676215131e-01
      5.9518186984863150e-02 -2.5061408558679654e-01
      6.3098984210882070e-01 -2.2157025212525935e-01
      -1.1672940399138265e-01 -1.7392361887817911e-01
      -3.0225209530063046e-01 -1.1599826123889587e+00
      -1.8248026353809157e-01 -9.2507439999508301e-01
      -6.8395205552976689e-03 1.1546816131929192e+00
      -3.2356108633576242e-01 2.5863108099425480e-01
      4.3349701341645208e-01 4.2200893209229623e-01
      8.3145086599404561e-01 3.7607239211978277e-01
      -3.0196244243310300e-01 -1.0432172728150559e-01
      3.6177861483921431e-01 2.3706982336537433e-01
      1.6298056598054009e-01 5.9703307626339963e-01
      -1.6971918380164994e-01 -5.8995274593272806e-01
      2.0744167455650508e-01 -1.1987676289455999e-01
      5.5746717158287704e-02 -3.1123280414462423e-01
      6.3284594985696319e-01 -1.6414485094988449e-01
      1.6804756193428649e-01 4.0777637073857792e-01
      4.0780762786836966e-01 -4.7871419335218363e-01
      6.8663583196167410e-01 5.5540832561003639e-01
      -4.9162507359077887e-02 -1.2179542120657517e-01
      -2.6217745374618789e-01 7.6421123345590869e-01
      3.2342957889040830e-01 4.1703795801898663e-01
      -6.6365458454687765e-01 -1.5469558177766923e-01
      -2.4316728011442232e-01 2.1875183867017778e-01
      5.4659131061600164e-01 -2.8854746992769142e-01
      1.1723615469482513e+00 1.3535310801608766e-01
      -8.6791979583312022e-03 2.7936098325038194e-01
      2.8606556960539442e-01 3.7712266474121525e-01
      5.5199639610774587e-01 -2.4307297648769019e-01
      -4.6294039355718508e-01 -5.4966436942682551e-01
      -1.9138955794285720e-01 2.8633095886253146e-01
      -5.6932175014058872e-01 2.0460991318036359e+00
      2.4144332645284605e-01 2.9159417362348731e-02
      -4.9682762834780919e-01 3.7766727011534124e-01
      3.0674048191739542e+00 -7.8009310516333877e-02
      1.2351826333234210e+00 1.1979000774413401e-01
      -1.4872994589593486e-01 -4.8872758787197651e-01
      -9.0157038598006123e-01 -2.1886716432321682e-02
      4.8978562649804652e-01 -1.3888762656176767e-01
      4.2137636237160780e-01 -1.1586781907638978e-01
      -2.8448034578698794e-01 5.0124113367129719e-01
      -5.1228781850469496e-01 1.6812659618039291e-01
      4.5085084846646051e-01 -9.1646076273734534e-01
      -1.2564780859556959e+00 -2.0674174336105397e-01
      1.2769246426804763e+00 1.8678058026861460e-01
      4.0402148764229384e-01 -4.0715542014483769e-01
      -3.8074867476043711e-01 5.5176450518608744e-01
      1.0064239607503318e+00 -8.8027831892239748e-03
      5.9021405076212319e-01 -2.8802301874369929e-01
      -6.9479176502892803e-01 6.2255243116168357e-01
      -1.0473178305309445e+00 1.1383618271913851e+00
      1.2908482707694274e-01 -7.3055318409477144e-01
      6.6258593589706261e-02 -1.2326617398603229e-01
      -5.4932434225809146e-01 -9.9754105261091047e-02
      5.0459298579596031e-02 -1.1691756704748484e+00
      5.1094858065921278e-01 -2.7927981431553572e-02
      9.2469647476531597e-03 1.2953998453290916e-01
      1.0794264614511903e-01 3.3091263625010509e-01
      -5.7945383618640167e-01 1.9089584348638816e-01
      -2.7452568014627360e-01 -9.3064485140689568e-01
      -8.1107110996787346e-01 2.8740121959818787e-01
      -1.1453398015484992e+00 -2.6224910963453357e-01
      4.3332033824438948e-01 -2.0360761912063441e-01
      -3.1960577401512413e-01 4.0014873598540640e-01
      3.0014630123437747e-01 7.2882708080684433e-01
      2.7456812061366115e-01 4.2003786673706095e-01
      -1.5552516384587053e-01 -1.3403926881707675e+00
      4.5493256990167058e-01 8.9742390495985114e-01
      2.5732609409793172e-01 -9.1397583837874129e-03
      -3.6231934074969019e-01 2.2026515756147452e-01
      -1.4136383887405396e-01 -3.5959438077490535e-01
      -1.1361258306422628e+00 1.8167878282758460e-01
      2.9128273335117932e-01 -6.2227443957197121e-02
      2.3625461155898198e-01 -9.2039107563082279e-01
      -4.4565758251286436e-01 7.5430411967646060e-01
      2.3416379363120510e+00 6.6506079843108482e-02
      5.8116749270058221e-01 -2.6807223133165980e-01
      -9.4543103256651814e-02 -7.3372405871582547e-01
      -1.5630751354757116e-01 8.9038505092762177e-01
      -2.6002408465437887e-01 5.3543113974335854e-01
      9.1638693346294964e-01 3.3501680142849960e-01
      -7.7856628396129313e-01 -1.0559128420556264e-01
      5.5356488106360291e-01 7.6316157512967964e-01
      2.4171546774015518e-01 -6.0259967933391856e-01
      -7.3904838416495144e-02 1.7314841624050756e-01
      5.2340043382646040e-01 -6.7570180732852636e-01
      -3.1510103928466343e-01 2.7634123930670762e-01
      -2.2478472763114704e-01 -1.2157854771251871e-01
      8.8665940043445457e-01 -1.2290673644896026e-01
      9.6116434263545458e-01 -4.2790100415869753e-01
      1.5995448126558395e-01 1.7326409548961513e-01
      5.4201821731064037e-01 -2.1220125864973818e-02
      -1.0667804091571955e+00 -2.5369400669088732e-01
      -5.3777627771115588e-01 -1.4065246097002442e+00
      -1.1461482647822618e+00 -4.0815936715505935e-01
      4.8981747227874117e-01 2.9006497097638523e-01
      -2.1254239168618867e-02 -1.1961055625253118e-01
      -9.5259801464249436e-02 1.7776991438162304e+00
      1.8791183294214017e-01 -1.4008078335447460e+00
      5.9728029640017921e-01 2.1067490358616101e-01
      3.5042293400510383e-01 -2.2659679333050528e-01
      -1.1100458366014744e-01 2.7373194552733615e-01
      1.4582654867597056e-01 5.2587081045770667e-01
      -3.8515327041556252e-01 -5.8125033019834627e-01
      -5.7742094904236441e-01 9.2413617444694762e-01
      -2.0117791872228580e-01 -2.8485879392236063e-01
      -2.0733807879534433e-01 -5.7458242159669781e-01
      -2.4321741162305613e-01 7.7985090570836552e-02
      1.1350051848825714e-01 4.2682758932360754e-01
      1.2487782353550150e+00 6.7542450918216446e-01
      2.7184605862304945e-01 -5.4596478113268107e-02
      -7.5720296773353646e-01 -2.1350085813987010e-01
      3.4273454851840346e-01 4.8239331491874329e-02
      -5.8314029968217884e-01 -2.5147720913244794e-02
      -1.3925142695236906e-01 -2.4791855431367880e-02
      6.5494425466196959e-01 -3.3383189366794255e-02
      2.8448408037030271e-01 -1.2686161630863035e-01
      1.6837017561317486e-01 -1.6289383747285816e-01
      3.4149992567364118e-01 1.5146089371415068e+00
      -3.5633530909896149e-01 -7.2168984160539984e-01
      5.7679068340945250e-01 -7.9945408701448739e-01
      -3.4181061958997250e-01 -1.0020262726451461e+00
      -1.8053140042788188e-01 7.8851688335626197e-02
      -4.4109583420020676e-01 7.8836025138020371e-01
      -2.4442101647205497e-01 -2.2080028981250163e-01
      -2.4314234869376586e-01 5.9271646769968911e-01
      -9.8962401340334971e-01 4.5486128465838371e-01
      1.5058896802601516e+00 1.7049091457542881e-02
      -2.1536988232321913e-01 -2.2400665392887267e-01
      -4.5966196878636789e-01 8.1120695339751536e-01
      1.8967702327939187e-01 1.5312706708538895e+00
      -4.9403772189372530e-02 5.3919276442003339e-01
      2.9488543676218582e-01 -1.2059651194369816e-02
      -1.9008414764163237e-01 6.6520465196320488e-02
      3.0383156084034385e-01 8.4511365396707150e-01
      -1.2541492748525882e+00 3.1318341356491186e-01
      -3.5913318226408852e-01 4.5753844779855857e-01
      -8.1116374308984263e-01 6.3311565417518134e-01
      -6.6104158454926343e-02 3.2337866771534057e-01
      5.6935984776535142e-01 2.7345525547802768e-01
      -8.3659159982089970e-01 6.8758802649122397e-03
      -1.6703784780218478e-01 1.2923655600617925e-01
      -6.4546148517034652e-01 4.0728498907562705e-01
      -1.3909680691832680e+00 -5.4042461689039134e-01
      3.8004515566407787e-01 -7.4974260215723931e-01
      -1.7432120321535516e-02 -2.5722946809699897e-02
      -1.0449855245073909e+00 -9.7523273209859110e-02
      4.6938560761950116e-01 1.6542794802140276e-01
      2.6237127609131750e-01 2.4471578904058371e-02
      2.0021640593191395e-01 -5.3073524382663891e-02
      5.8790106449180213e-01 -3.6862821172314864e-01
      1.7348805793546975e+00 8.0165454389498325e-01
      -6.5259972733179372e-01 4.9881857129732721e-01
      2.8138916927316732e-01 8.7841372368270210e-01
      -3.8189812007628698e-01 -5.7434195846286151e-01
      -2.4148004545140314e-01 2.4451057195286530e-01
      -8.8361924541683498e-02 1.4232153915973378e-01
      -5.2048924716795431e-01 -4.5025361498191818e-01
      -1.7733744589974432e-01 -8.9942580192317001e-01
      -3.3920476137515349e-01 3.6538655954213856e-01
      4.9976860677192159e-01 -2.7916480296738233e-01
      2.4235065898832878e-01 -1.0268774478539343e-01
      3.0941211624477685e-02 -2.0933845234219390e-02
      9.9139946915589625e-02 3.4711418921386183e-01
      -5.5953529846723227e-01 -3.1048913613800005e-02
      4.0394276990237260e-01 7.3858273884524195e-01
      -6.1543498243260153e-01 1.8725480059051813e-01
      4.2684589355580721e-01 -9.8939843512274006e-01
      -5.0237846828794819e-01 1.0337539164718852e+00
      -3.5252038049051160e-01 7.4664883053933151e-01
      -7.6966467400760213e-02 -2.8558524044427069e-01
      1.2182691161038530e+00 -5.6087248518087174e-01
      -6.1698209973729390e-01 -1.4724742264957562e+00
      -6.8765248863184381e-01 6.0945237159991705e-01
      3.6797413629331238e-01 6.6979464068678085e-01
      -5.2798096635870118e-01 3.0085776306792289e-01
      -2.6755860064478421e-01 7.6509854746348305e-01
      -5.7041004399691642e-01 -5.2480039192888284e-01
      -1.0045262072759921e-02 1.1990479943867925e-02
      -7.9833123778559265e-02 8.9487051057886624e-01
      -1.0831547198052836e+00 4.9124503900234501e-01
      1.1559160709243822e-01 1.4005849044707433e-01
      4.3357130525429116e-01 6.6999028000260127e-02
      -3.4234319350314668e-01 2.3456275997722911e-01
      5.0383051458745254e-01 -1.2556059656009094e-01
      -3.8007205327877741e-01 5.6550479483918947e-01
      8.5367179005311511e-01 -7.6600936381460527e-01
      1.0647902223431172e+00 -4.7710485469244096e-01
      4.9091233975858417e-01 3.1409354397549927e-01
      -4.1193882806660098e-01 3.2010669114558944e-02
      -1.2358063524776089e-01 -4.0058271824003061e-01
      9.7547265492714541e-01 -1.3913219072601990e-01
      -1.2418816022626476e-01 6.6305101008028311e-01
      3.1136746244768571e-01 -1.8890960265874407e-01
      -7.6505878996710741e-02 1.2322062995745759e+00
      -3.1507363419474042e-02 6.1010806064018930e-01
      8.6746604889988577e-01 1.0426216992766611e-01
      -6.0340342184491391e-01 -2.9196838620220178e-01
      -9.9634503668589991e-01 -4.2860859938914186e-01
      5.1642549690231565e-01 5.0425798838380087e-01
      -5.4941878270337230e-01 -9.9879222250350813e-02
      -1.3547827912998292e-01 3.7375946523346748e-01
      -8.8754374955615067e-01 -4.5890100231556685e-01
      7.2448286656167760e-01 7.8892518899062625e-02
      -7.4025880955176426e-01 2.5983255728993165e-01
      -1.9785349837444438e-01 -6.3612589063319222e-02
      2.5929851691259768e-02 2.6245082678285531e-01
      -3.0616103436324460e-01 9.4038416488637921e-02
      -1.0196379152598090e-01 -2.7011794859397459e-01
      -1.7576067262146107e+00 -4.1321087758482050e-01
      -2.1569586349366812e-01 4.1806401039364294e-01
      -7.2551514183942212e-01 6.7032680619728668e-01
      2.1295394777101015e-01 6.8828099496192396e-02
      2.0521983736151109e-01 -1.2440265961070054e+00
      5.2171348836259249e-02 -5.5329316900308245e-01
      6.5581578210211566e-01 -3.4088679611355299e-01
      -2.5751985450653692e-01 2.7761704175119611e-01
      1.9770241103774949e-01 3.3746358903698032e-01
      -2.0086597613094179e-01 -5.6997346549846994e-01
      3.7501560386541100e-01 -1.8826839823521294e-01
      1.0727388123341568e-01 -4.8480009259572748e-01
      -2.4076266125204976e-01 4.3629645740998924e-02
      1.0853163997528963e+00 4.5839033557147657e-01
      -1.4077288132616034e-01 1.9592814218084079e-02
      -3.1608144178598713e-01 -6.3504066275114301e-01
      -8.9254581671065170e-01 -1.5270605376291535e-01
      1.3112787677562969e+00 -2.2270205128430223e-01
      2.4208122415957767e-01 -4.7906595944879754e-02
      3.6524525342689257e-01 -5.7852591451571211e-01
      -1.1050539242226329e-01 -5.2665205746888644e-01
      1.0647636038477195e+00 -5.2333457493556879e-01
      -1.8851782691037744e-01 2.0341634304624173e-01
      -6.4416798951181709e-01 3.7429184981123104e-01
      -8.7390414568634378e-01 -2.0015858603163375e-01
      1.4037862966425589e+00 8.7483328470467681e-01
      -9.6029153789808952e-01 8.1770365576651172e-01
      -2.5209140604611424e-01 7.1307455505891168e-02
      6.0159297361747521e-01 6.5213625708434020e-01
      1.1336731154961316e-01 3.0790187226428939e-01
      1.7225090316611885e-01 6.9755324033862087e-02
      -4.4859356349517376e-01 2.0599158760214012e-01
      3.4044865870971669e-01 6.3209621913328284e-01
      -2.8301800566474267e-01 4.1510260726443715e-01
      9.2547853672998351e-02 2.3426340147216393e-01
      -4.9291009496178440e-01 -3.3108586578993049e-01
      4.7981125150670617e-01 2.2890105148694634e-01
      -5.7835532223314756e-01 -5.7992612205002347e-01
      -2.0632527786402211e-01 3.9244638104300594e-01
      3.4826702081999084e-01 -3.5414872882317083e-01
      8.0997710107831189e-01 -1.1075341035906471e-01
      -5.8783260608213039e-01 -8.7923081544380410e-01
      -1.2793410784397929e-01 -1.5135872445177240e-01
      3.1591472388384578e-01 2.7854476015138661e-02
      3.0524158215424761e-02 -1.1193100814713382e-01
      -3.1815597059966988e-01 -3.8889666248105165e-01
      -2.1215209196494125e-01 4.8285714993102730e-01
      -4.6907916754843224e-02 -1.1895683332105984e-01
      2.6273449344115990e-01 2.8316413851368460e-01
      -6.4014250403209141e-02 -1.6515208864737194e-01
      -4.8554034779548783e-02 -2.5645423770883569e-01
      -1.5651471983855458e-01 2.8445828953080413e-02
      -1.0884919937613950e+00 6.6366215680866458e-01
      -3.3830908965281442e-01 -6.1673749543171918e-01
      -8.5888715123499293e-01 -1.9746509998875061e-01
      5.8708963815460957e-01 -6.4298265819599160e-02
      -1.2493405166584028e-01 -7.0650511958534767e-01
      -2.9134026378380090e-01 -3.8320681281386071e-01
      -6.7490847135407359e-02 -1.1665434938846206e+00
      -2.5572972775256725e-01 7.0229495316718460e-02
      -3.4342116004629575e-01 -6.5743598095262568e-01
      -4.4763174674474948e-01 6.6357883005490237e-01
      6.7955864208040465e-02 3.4463425994401237e-01
      -1.1427047493753527e-01 -1.0587662565788580e+00
      8.0858744280715933e-01 1.9473290917186806e-02
      3.4641394005859999e-01 -2.6668830492337137e-02
      -1.3383348583818111e+00 4.6251570073304565e-01
      6.8027699329533597e-01 1.9689080308410259e-01
      -8.4604764682962597e-01 1.7713044771779521e-01
      -3.8659923661961454e-01 -1.7706837059624972e-01
      -2.9457464702564451e-01 -1.8773155772747813e-01
      2.9190090416620650e-02 9.3269803521936492e-02
      2.7617571051686773e-01 -3.2959843766325003e-01
      8.3892495957100066e-01 8.3955923124271026e-01
      4.2750814690054939e-01 -1.5505893389343667e-01
      6.7749718695817440e-01 -5.5295291675585778e-01
      4.2359710025513925e-01 4.4215997928363046e-02
      3.6025870952486588e-01 -1.0307157037900620e-01
      -6.1339007416564097e-02 1.1586339121577089e+00
      -5.2181735592058731e-01 8.7888755708687727e-01
      -3.9182090304141753e-01 8.0980735204871113e-01
      2.1543272547656189e-01 -1.6966207450993123e-01
      9.9055803221285779e-03 -4.2440114394764900e-01
      4.0260532073805705e-01 -2.9594474290822970e-01
      -7.8643806160661089e-01 2.7794504641991818e-01
      -5.6181238082720397e-01 6.3009118172924128e-01
      2.2004241161567767e-01 2.6904708891935170e-01
      -4.0136964872419151e-01 -5.8788411479409164e-02
      -6.7799885944463190e-01 -9.3641890062022692e-01
      -9.4929547811143378e-01 5.0193092419874707e-01
      2.6153817408508029e-01 8.4142313771243971e-01
      9.6886965252756041e-01 -2.3611449180450528e-01
      2.1189258539593736e-01 -1.4472884807377842e-01
      8.9996400256015485e-01 -3.2149677826737347e-02
      4.1676877766230858e-01 -5.8201221720669272e-01
      1.9192026172424312e-01 -2.7415031367623061e-01
      -1.9746692553708309e-01 -2.0654979958092300e-02
      3.6665780151735372e-01 1.9197946198168758e-01
      -1.9384953720225628e-01 -6.2546218613977175e-02
      -4.1368985273082476e-01 -6.5496618467126433e-01
      2.5754948973967773e-01 8.4535193106084328e-01
      -6.3005657375955193e-01 -9.2956409948458907e-01
      -8.5561634440839385e-01 2.8786983819989365e-01
      -1.8565450939715741e-01 -1.8633586508240388e-01
      -2.8189863122263025e-02 -3.8846154393884275e-01
      3.0232974961226823e-02 -5.7870305088363405e-01
      -6.6760396304905711e-01 -4.2586849367879070e-01
      4.5173860170011831e-01 -5.1637985935409447e-01
      -6.0688179129061870e-01 3.5246440570635146e-01
      -6.0727510700312870e-01 7.3579771842805752e-01
      2.4808776459571462e-02 5.6879010310636025e-01
      -3.5065742675487482e-01 2.3352082374291174e-02
      -6.8117226992470836e-01 4.9456751582439223e-01
      1.0715633726452942e+00 3.5812141926033249e-02
      -3.5069416975583984e-01 -1.8949184720081735e-01
      -5.6555941049242764e-01 -6.1709770783581641e-01
      -1.0307105031811912e+00 -3.8389715925708529e-01
      1.2737814040344519e+00 5.5303568677049308e-01
      -7.4667912464238106e-01 -9.6345185430488950e-02
      -1.9572647378007338e-01 4.6054503654953627e-01
      2.0956769943708004e-01 -2.3531049898047438e-01
      -3.5226234366008191e-02 -4.0765376088190947e-01
      -4.9168917959637304e-01 2.4278094265338879e-01
      -3.0288267529385762e-02 -2.8438448717348991e-01
      -8.3854692949621812e-01 -1.4513082942792388e-01
      -4.6009123210350406e-01 2.9812343007959141e-01
      -6.8829484131155061e-01 3.0885353098148011e-01
      3.1233402530862392e-01 2.9129333257590845e-01
      -2.5794675084618618e-01 7.9935168250862576e-01
      1.2900142231049538e-01 2.5082391735571463e-01
      -3.4772830277184535e-01 -7.9799998681796225e-01
      -8.6860167136841959e-01 7.6521919318832413e-02
      -2.8738984696940356e-01 -5.5799261027720370e-01
      -4.7728690437723253e-01 -8.9281041831990382e-01
      8.3096243438331274e-02 -5.0564614071883465e-02
      -9.0946760062198845e-02 -7.8026575052244224e-02
      -5.8070535711305105e-01 5.4459309954771173e-01
      5.4366592729381502e-01 -3.2519853160399242e-01
      3.1918288962887509e-01 6.4063725628264928e-02
      -5.7778825298697035e-03 -4.1202928800418187e-01
      -2.9672703751152779e-01 -4.2075291200001347e-01
      5.5313223820129605e-02 9.1024011459091747e-01
      6.5354833586425076e-02 1.0399086230422792e+00
      -3.0756242490719282e-01 -1.7819863702065772e-01
      6.9195668563984292e-01 3.9788744389282110e-01
      -1.1339869531193739e-01 1.6863372260730469e-01
      -4.0314423920185971e-01 6.9386786060168260e-01
      1.3105609145591435e-01 2.0488233342038131e-01
      4.1537948600569130e-01 2.4796301690920264e-01
      2.9988126178359437e-01 -1.2076858258070618e-02
      3.9969001735007431e-01 2.0711190737533677e-01
      -3.3311414287623914e-01 3.0461665525768133e-01
      2.3445375372801533e-01 5.4381533112482401e-02
      -3.0359639761134516e-01 1.2086767993767846e+00
      5.4369423518662127e-02 -1.2120155318622594e-02
      2.1822858687478972e-01 -7.1733137731868146e-01
      -5.3978203853485873e-01 6.7574660071292769e-01
      4.6981129781452947e-02 -8.8125025109898031e-02
      4.4416288478422672e-01 -6.0838757780783004e-01
      2.9425395717899303e-02 1.0464439900372566e-01
      -9.3708245746418184e-01 -1.7650613177896374e-01
      -4.6498750509583708e-01 3.4499964567522023e-01
      2.1297524824858383e-01 -5.8645150765342235e-01
      -4.1511722467502010e-01 -3.7275067825340807e-01
      -5.5564865713776690e-01 2.9586161241058678e-01
      3.7872813597829497e-01 1.1272406102331043e+00
      -6.5713015188574231e-01 -3.7997712345766493e-01
      4.4222500208882520e-01 1.4249732682123639e-01
      5.5985712110285768e-01 -1.8579134324015553e-01
      -5.3214847759161565e-01 -5.2142300755264426e-01
      -4.3093268999217338e-01 8.7757715830725294e-02
      -5.6536805468321982e-01 -3.3936853048159771e-01
      -2.1703378938486181e-01 -1.2781817047337907e-02
      -2.7991021954543249e-01 5.7621597070495678e-01
      2.9428297762378895e-02 2.4518497520365820e-01
      -1.6286208223520734e-01 -6.6571744271216760e-02
      -9.5210258679168311e-02 2.7465790064732565e-01
      5.6497337380919721e-01 -5.0222049595487339e-01
      2.7151489987265104e-01 -1.4801643446185858e-01
      1.0504133094291505e-01 3.5150940335528069e-01
      -2.8934194756985993e-01 1.0283442094521101e-02
      1.6598584554858406e-01 4.1213032174322173e-01
      -2.5038180589459551e-02 -9.7772948678049265e-01
      -3.4117343188546073e-01 7.2399374597433661e-02
      -3.3603685150047974e-01 -5.2909950719544940e-01
      -8.3867609106547802e-01 7.0562131454168897e-01
      -6.5154137258012779e-01 -4.1702880811333110e-01
      5.7767381301985732e-01 -2.2908465892540208e-01
      -1.0703432046525945e+00 -7.1640193275970508e-03
      1.7359892786276415e-01 -3.9812930745922365e-01
      -2.8652190667521488e-01 3.9309871516788991e-01
      -1.5172377143432106e-01 5.1185900151640047e-02
      -2.2053521577571905e-01 -1.0794747962738598e-01
      1.8317599350584721e-01 1.5279095622976485e-01
      1.3680130292741477e-01 6.8892341404121327e-01
      -6.9411720764627094e-02 -5.9774036108004014e-01
      1.6816009457348860e-01 2.7684725198536242e-01
      -9.0611655352541204e-02 -1.9923046697477104e-01
      9.6164991335154618e-02 -2.9860025260712120e-01
      2.7090319781113203e-01 -5.0236347430733619e-01
      -6.7767097152277711e-01 -2.2523174018604367e-01
      6.8707518633191411e-01 4.3567107708273117e-01
      3.2472557217195297e-01 -2.4449547223604681e-01
      -2.6423886210824582e-01 -2.6630917500286033e-01
      -1.0346841193010713e-01 -7.5536199448170593e-01
      -2.4245534859402346e-01 -7.1392710681006899e-01
      -1.9916019842019472e-01 -2.3462139477818786e-01
      -5.6446146002531850e-01 2.4606693948274735e-01
      3.2728211422560810e-01 -1.7960189436087950e-01
      -2.4457769365354270e-01 1.9570182947274159e-01
      2.7727351041073300e-01 9.2163252744304189e-02
      -4.7640741991239161e-02 6.2973948401480395e-01
      3.5410746188724213e-01 3.3380858562256316e-01
      1.9610807947456960e-01 4.7604645756810199e-01
      7.5439758868983825e-02 -1.3698529625359557e-01
      2.8133112453420921e-02 -6.3409708590179137e-01
      -6.3778945997881908e-01 2.8402998399538865e-01
      6.3632451381912869e-01 -4.1927276335082198e-01
      -4.3663825453639238e-01 -7.3156175631469633e-01
      4.6496646901091976e-01 3.4775612721803528e-01
      1.0763158686920258e+00 -2.5790498080406016e-01
      -7.6265130048483465e-01 -6.4784132209141942e-01
      1.0188930346119690e-01 2.6253089631221727e-01
      1.2021105853149859e-01 4.6084335197953477e-02
      -7.3779920721043113e-01 1.0217472221381199e+00
      1.3559274798420431e+00 1.5190340904301455e-01
      7.9375897203990187e-01 1.3431641443740741e-01
      3.3982304711852890e-01 -3.8609261519654520e-01
      3.6658872835456907e-01 4.7315245076394080e-01
      2.5112712116038688e-01 5.2897762912530316e-02
      4.1505287180079020e-01 3.7195621384854466e-02
      -1.5884867742702907e-01 -8.1913329015164529e-02
      -4.8943672660307092e-01 -1.0747632666065536e-02
      -2.3136343976830571e-02 5.3501714651307507e-02
      -3.0360090691854841e-01 -1.1523872185269654e-01
      -1.6919171230123267e-01 -1.0184656198712795e-01
      8.0714939992006851e-02 -9.4226541556465726e-01
      -2.8746641073921070e-01 -1.3044637154828143e-02
      -5.0628692336888631e-02 1.0125556862425859e-01
      1.9251779367378244e-01 -2.8156589465751380e-01
      1.9594555656081925e-01 2.3409409040933718e-01
      -9.2328757064452660e-01 -4.9284647440525520e-02
      -6.1193100016866053e-01 2.7773898207148778e-01
      5.1876311841631262e-01 -5.5813300940649213e-01
      4.2988981210577926e-01 -9.1672012912374989e-01
      -6.5923193181450868e-01 2.0175330575286604e-01
      -2.4699328024718339e-01 -7.1043741665456450e-01
      5.9712022742777482e-01 1.4230604808461300e-01
      3.8234583868804251e-01 4.5248718107149544e-01
      -1.1655071617466929e-01 2.9126409060470831e-01
      2.1478520390551206e-01 1.8568634237081424e-02
      -1.2398116024529202e-01 1.1756899992444300e-01
      -7.8522749747531451e-01 2.3934986127464616e-01
      5.3356396517524891e-02 -6.1731037263628041e-01
      -3.2465154351401251e-02 1.9594728936630182e-01
      3.0082086162621585e-01 1.8151005202987633e-01
      -6.0574065188647086e-01 -4.2486195875228305e-01
      -3.4280845243858721e-01 2.2001214770071323e-01
      -1.9933895989094635e-01 -1.8451132977285950e-01
      -2.9757845504435076e-01 -8.9157206739060996e-02
      5.6192980884251592e-02 -3.5262568043400194e-01
      1.3154050466702508e-01 -7.1516204837760194e-02
      -4.4211322945635595e-01 4.0934609356332036e-01
      -4.5032236830787570e-01 4.7484524636243614e-01
      -5.0250229330043350e-01 -2.9186879993611137e-02
      3.3471317441185666e-01 -1.0851407457676766e-01
      2.7223393735348089e-01 7.1124321921379785e-01
      7.4571087132981251e-01 -3.4422516522870283e-01
      -3.6593379925666303e-01 -4.8591979231068816e-01
      -2.6551274211032860e-01 4.5188500784834090e-01
      2.5811119787310421e-01 -4.5703958506292575e-01
      6.9976355322329331e-01 4.0456543077370660e-01
      -7.2142841540237312e-02 3.7741577772679918e-01
      2.6838672593923579e-01 -1.0804680240518640e+00
      2.3911382372425519e-01 -5.3986927871340171e-02
      5.1444769508380961e-01 4.6117928593862551e-01
      7.1813019568713687e-01 -8.9437211506361136e-01
      -2.6034840093490430e-01 2.5605165440335731e-01
      -3.2165463506049424e-01 8.7212294630684062e-01
      -3.9793909459440907e-01 3.8200407894490768e-01
      1.0281256538312043e-01 -1.6455008344322941e-01
      1.3278703110095241e-01 -2.8876294545527426e-01
      3.1600096447209175e-01 6.4491748815116512e-01
      -2.4830976504334926e-01 6.9507414322488081e-02
      2.5177599841161230e-01 7.4373747865389828e-01
      -1.7003818662020143e-01 4.0833262192232794e-01
      4.4504654368992896e-01 -7.5973712001542426e-01
      1.1827801712056592e-01 2.3054475676162900e-01
      3.1411701646588092e-01 8.9469155939561307e-01
      -1.9502591315301021e-01 -4.0314813495777257e-01
      4.1824438657008950e-01 -2.9156573515346475e-02
      1.7964648607128979e-02 5.3600883890060590e-02
      -2.0124537370221254e-02 -2.8028626229720022e-01
      5.2899881273047966e-01 -6.3351457143480654e-03
      -2.3892739419845360e-01 -2.3697306465571069e-01
      -1.6458823679466994e-01 5.7124851513099525e-02
      2.1673967125203994e-01 2.9703659422267620e-01
      8.4816228853963649e-01 -1.4248945222032136e-01
      2.0257163202268350e-01 -4.0991929560382517e-01
      -2.5487665728171399e-01 1.3073026157483672e-01
      7.5540017578283913e-01 1.3942067988215776e-01
      -3.2788805683488592e-01 -3.6134226102612277e-01
      -3.8711568080478859e-01 1.7407329348307643e-01
      -4.8078476470584730e-01 2.9817731928094388e-01
      -5.7268259141179256e-01 4.1692306908002230e-01
      -1.7316250041625855e-01 -2.0272097912618983e-01
      2.5726628167377386e-01 -4.0504254639267206e-01
      -3.2199469741545320e-02 5.6306160422795640e-02
      3.5801730619861050e-01 -2.0009689181948723e-01
      -1.7285252183245742e-01 1.5577560545899344e-01
      -5.1504200951943102e-01 -2.8442431136761848e-01
      2.8491239918754102e-01 -4.3931337063232273e-01
      1.4697983450137700e-01 -2.3678779008345135e-01
      3.0115539792220136e-01 1.1975885575418277e-01
      2.2468464264488938e-02 7.6139326217852454e-01
      -5.9297249351767868e-02 -1.4718037137305057e-01
      2.4051203418179606e-01 -4.9702394913799214e-01
      -3.9731504795273370e-01 -2.2653841667979419e-02
      2.6612760273193725e-01 2.4025370515952413e-01
      -2.6030578631071866e-01 2.5616258880783777e-01
      -9.3988926644489615e-02 2.4206684071264187e-01
      -2.8816181321749190e-01 1.1382649248126864e-01
      2.0456862856511265e-01 1.3324343004546621e-01
      4.0114424450323255e-01 -2.3227899753919459e-01
      -7.2788287625130912e-02 -2.9080306067726752e-01
      3.2603224664078317e-01 6.2248981567573514e-01
      7.5638536753270910e-02 4.4645599149675408e-01
      -3.0994424340866455e-01 1.0425835031422564e-02
      5.5413391774407106e-01 8.7541992781645872e-02
      -1.8669103326113046e-01 2.9045984251109902e-01
      3.9872791069770913e-01 2.4860413244325796e-01
      -3.3347655541001237e-01 -4.3345578762136855e-01
      -1.4823217863561697e-01 2.4185954170402346e-01
      2.8240736676691358e-01 -1.7499394115348853e-02
      -7.1679670086537761e-01 -8.8567846940087333e-02
      5.7370933108483946e-01 -3.9308405729997009e-01
      2.1673581582031623e-01 -7.1654846960846663e-01
      -2.6853377541115202e-02 -4.1469233245401727e-01
      4.7869183262588777e-01 1.1504106701618337e-01
      5.2514344226106610e-02 -2.3435629624202408e-02
      -2.7210054290030000e-01 -2.3449334843852782e-01
      4.5399492502714794e-01 -6.0027176744128352e-01
      -5.2258773956774784e-01 6.5932346703814315e-01
      3.9022508366872410e-01 -1.1745053181036524e-01
      1.3471434756558046e-01 1.6474434077840449e-02
      -2.6568325874681287e-01 -3.2540601034150896e-01
      -2.2929891507378897e-01 4.4568986301497249e-02
      -3.3885541871866531e-01 1.9066730227246594e-02
      -4.2136755412494009e-02 7.0537105573311809e-01
      2.3009507219756356e-01 1.4814994726917138e-01
      -1.2603228842417100e-01 2.5389040374347605e-01
      3.7306168054561645e-01 -2.9140341074146114e-01
      -3.3710266062142918e-01 -1.2679477343013285e-01
      5.8213762074537850e-02 -7.0641648055717743e-01
      4.4416190270758066e-01 3.7634619578275297e-01
      -1.7433392656771987e-01 -1.9357915785958404e-01
      -3.1540347038030614e-01 2.4379517952319837e-01
      -6.5481971065742250e-01 1.2845955933664246e-01
      -1.4917338385983092e-01 -4.1343896654889917e-01
      -8.0923437590282019e-02 1.7144043381472363e-01
      4.7066232380474460e-01 -1.6688426420075397e-01
      -2.0306236368865935e-01 3.4311470777987468e-01
      2.4771369406743310e-01 -2.8024084739815269e-01
      -4.2430941094938590e-01 -7.6055291551432680e-01
      1.6702624821482825e-01 -6.7292931428459657e-02
      1.1901825682429248e-01 -6.4566642678098818e-01
      -6.3438246790326180e-01 -7.6249024171898189e-02
      -2.1025387665953459e-02 3.5158754943253862e-01
      -1.9896836325114403e-01 -4.6655866249570233e-01
      -7.2739848014342523e-02 -1.2300364943388493e-01
      -4.8645411727625758e-02 -5.4614174313119945e-01
      -2.9916458940659024e-01 5.4794610866967286e-01
      -3.8643923716660561e-01 2.8768699749174642e-01
      -7.0215771400676086e-02 1.7323281019749856e-01
      3.3027067243716896e-01 -2.0705555580983895e-01
      4.1448054180784882e-01 4.4054748271577321e-01
      -3.9791405946318265e-01 1.9578009964118865e-02
      5.5551562125989377e-02 -2.6134202202938789e-01
      7.2422727590483238e-02 7.9595539459110919e-03
      7.4361603772733442e-01 3.8978148164844928e-01
      -3.6716110453969358e-01 3.8095101672265608e-01
      1.5160924615786978e-01 6.2344460746427827e-02
      2.5313559912098138e-01 1.5241819786621991e-01
      1.8181874049903921e-01 -1.9548676697991701e-01
      -8.1313399175204096e-02 5.8935001973949941e-01
      -2.3895824299202031e-01 1.2627144510769983e-01
      3.6575930546721558e-01 -2.5441580989952062e-01
      -1.8622163601256386e-01 -4.2324614946229716e-02
      -2.5785628828196611e-01 -6.1158448120550712e-01
      -1.4160849829811772e-01 -1.4264690467405908e-01
      -3.1582187753638541e-01 -1.9752515646716479e-01
      -6.8558697293524951e-01 2.6203847296569294e-01
      8.6313953145238792e-02 -3.7257056429081575e-01
      1.0756269610014983e-01 1.8518958199765273e-01
      3.0792191254798440e-01 -2.5729895094055927e-01
      5.1214688981663835e-02 5.8569926828643926e-01
      1.6701533004725849e-01 -2.4492380093251598e-01
      -9.1412864235554010e-03 1.9383361378649880e-01
      -2.2496303998780504e-01 -4.9029123854251511e-01
      -9.7234911286489090e-02 9.4251726531391355e-02
      -1.2824596021497819e-01 -9.7145580061175629e-02
      -8.8347531042518718e-02 -3.4710437817803787e-02
      5.5440878892481849e-01 -2.3305157975254603e-01
      3.2664821907539149e-01 2.3708359543640731e-01
      -1.7945540064809989e-01 9.7133810494834882e-02
      -9.4826364552396292e-02 -3.0091983584358656e-01
      -5.1456637165867167e-02 8.1252048028425852e-02
      -2.1576345323317114e-01 -2.2083785341164444e-01
      4.5446254281000159e-01 9.1067134749937287e-02
      -1.6107574096796903e-01 -1.8451563417393729e-01
      -2.5520949740723980e-01 -3.1892611631470469e-01
      -1.4827495538537502e-01 3.7372659027971139e-01
      -1.7357660871588187e-01 -5.7164229821815071e-01
      4.5914097960059297e-01 -1.7116537622258832e-01
      -4.0786054198161720e-01 -1.4727612015714872e-01
      -6.2574299859564919e-01 4.0630891099647341e-02
      -1.6523692454030456e-01 6.8418257892160411e-02
      -5.3184789748469763e-01 -2.6770888833004297e-01
      -1.8763492872130100e-01 -7.0638148651577404e-01
      -9.6446192541698755e-02 4.1336710065080307e-01
      1.7953881294973856e-01 -1.1146957731933291e-01
      -5.6428823231216818e-01 9.0286816332121878e-02
      1.6851385926783088e-01 -4.9069430968960676e-01
      -3.0522449251544886e-01 2.7598126343127893e-01
      2.8977517148432863e-01 -1.5776268112483124e-01
      -2.3633410316252457e+00 7.5977076902298823e-02
      -3.9514677663744463e-01 -3.6093251571783036e-01
      -2.2358079587644342e-01 -1.8733579758982316e-01
      6.2045316879923507e-01 -5.0379153935530260e-02
      -3.6117132735217972e-01 3.4501063775180824e-01
      5.8680294359218205e-02 -6.6695254566265544e-02
      -3.3849166654770635e-01 -3.8443085444743830e-01
      -2.0236998215765584e-01 -1.3569270743995804e-01
      4.4561070751206418e-02 -1.3169614771650465e-01
      -9.9011728820334410e-01 2.0530590098334016e-02
      5.8504180711011189e-01 -2.9039149492345290e-01
      -5.3003238663777230e-01 2.7483492627981133e-03
      2.2629895556548280e-01 3.4909515626807824e-01
      -4.1344197730633958e-01 -7.0701348813333720e-01
      5.6965569779058589e-01 -1.1366772396821143e-01
      1.8874738823463977e-01 2.5287746845640746e-01
      1.2092126772943994e+00 -1.6213867726075923e-01
      9.3560979234089336e-01 4.5936349142560062e-01
      -3.1857271438452162e-01 3.2321151692157646e-01
      7.1954468092766855e-01 4.2377087749573127e-02
      -3.1685519093918374e-01 5.7015736229999003e-02
      1.2328218296747154e-01 3.4323003656108891e-01
      -4.4123971715448240e-01 1.7515432103380496e-01
      1.7268650890836415e-02 8.6456224933174661e-02
      2.7004752307316876e-01 2.7906543323839145e-01
      -9.6381009234963691e-02 2.6264696184271941e-01
      3.4590879148967479e-01 2.7859103528552936e-01
      3.1462306678682306e-01 -1.5972497675824732e-01
      1.2274067069013327e-01 5.0512368355654758e-01
      8.1357092523775515e-02 7.1685910690464427e-01
      -2.7837939754272156e-01 -2.1675606553346305e-01
      4.3410957633407793e-01 3.3916451934915166e-02
      -5.7649521576577745e-01 9.5889970729374530e-01
      1.0584333755089230e+00 -6.7836590810646535e-01
      1.3223006404304613e-01 5.2938920834618297e-01
      5.2579031560948002e-02 1.6011361274308339e-01
      -1.0136230105572404e-01 -4.4922649595835340e-01
      4.2790578334018126e-01 -4.7446309980777257e-02
      1.8514514670418755e-01 -5.0281573177671424e-01
      -1.2479589699541580e+00 -4.1610476205832241e-02
      -5.0274838756266711e-02 -1.5688835993671710e-01
      -3.8804817123875279e-01 -3.1839887146373158e-01
      -5.1419198152776113e-01 7.4063290255483916e-01
      1.1737010246294160e-02 2.9684779537968542e-01
      -1.4995308482595215e-01 -6.1609018199173704e-01
      4.9122475016986862e-02 -1.6112785071586308e-01
      -3.3344510815634332e-01 -1.1350803281244561e-01
      -6.5900397172305947e-02 3.2072637972259765e-01
      -8.3116065542829742e-02 -3.8876835871071252e-01
      -6.5012638938612266e-01 -2.4387048811164349e-02
      -5.4441403531341814e-01 3.3263162644675687e-01
      -5.8752574460750673e-01 7.6338136338058626e-01
      -3.4420530126474019e-01 -3.3556251240916635e-01
      3.4267431430253104e-01 -6.5847354402385083e-01
      3.5329316826493884e-01 2.8642984441661246e-02
      1.0664332831560493e-01 8.8419518498755664e-02
      -1.9165249510535731e-01 3.4191550874524246e-01
      1.2960344740481869e-01 -3.2494828072539977e-01
      -2.5076041454685927e-01 2.3823922782589618e-01
      3.8569757626032347e-01 -8.5382019783282737e-01
      -4.2251129440403309e-02 3.6965697604719391e-02
      -1.0957082276474306e-01 1.0427840169767880e-01
      1.5904945116856994e-01 -2.1789145838794047e-01
      4.1524921753747751e-02 7.5891790265483011e-02
      -7.3936167086894955e-01 7.9020938226044876e-02
      -5.8350844767371179e-02 4.7693281603720517e-01
      -1.5925287415208772e-01 -5.5851519736196875e-01
      -2.6247939835841616e-01 8.5770306581591210e-02
      -8.4761042968824885e-01 4.8440743772338396e-01
      3.4759916861763407e-01 3.2456626453225840e-01
      -2.4070860598329369e-01 -2.8717756647345258e-02
      2.3212258991086440e-01 -1.8818477851659729e-01
      -2.2361362257106621e-01 6.7416314138862080e-02
      1.1022591401445313e-01 5.1580207731828011e-02
      -3.6840714863783691e-01 2.1081586796762843e-02
      -1.2485678827668958e+00 -2.3699536656318665e-01
      -2.4226581744094096e-02 -5.1877719193762373e-03
      -2.0838390074292024e-01 8.8164617397691589e-02
      -2.2533438955946120e-01 6.4199609401441746e-02
      -4.5127457110518066e-01 -1.6993340026584444e-01
      2.0252467690938681e-02 -3.6221406865250388e-01
      -9.6814868981927163e-02 -7.9924336515038175e-01
      3.2263017305821227e-02 1.6691229501341570e-01
      9.3592830406482341e-01 -1.0139436775115231e-01
      -6.1173686864848986e-01 5.5384858531774528e-01
      1.3840908933570256e-01 5.5276367825146056e-01
      2.1961837562670203e-01 -3.1369643550584309e-01
      1.8487960087329716e-01 -6.3027449108379674e-01
      -1.6523430721292307e-01 5.2009131969075459e-02
      -6.0280465190632193e-01 3.0089700209092355e-02
      -8.9329726093370670e-02 -2.6163300379202586e-01
      1.7659347801375974e-01 1.8062886675689821e-01
      -2.9511080773716847e-01 -2.2005727711622666e-01
      3.2385676833040594e-01 -7.3395237458613383e-01
      3.4850564387090438e-01 -2.7051290132137173e-01
      -2.4031949896963764e-02 -7.5886891633768605e-02
      -4.1780560435281267e-01 4.7550282992258364e-01
      -1.6713450561872217e-01 -2.1054015173697344e-01
      3.5765090506394731e-01 5.0607188818152726e-01
      -3.3978261551519029e-01 1.3815886597297211e-01
      -1.1261716597366977e+00 -3.0508645651737515e-01
      -7.2542784759688517e-01 -1.0054966615830881e-01
      3.5936654233028265e-01 1.7989332372467684e-01
      1.1348159824688691e-02 2.6954517756525753e-01
      -4.0183520682566115e-01 5.6048557619078232e-01
      -3.5334878749043991e-01 -2.6832204515265051e-01
      9.1703317191240996e-01 -1.6198387490862470e-01
      9.1293222832402515e-02 1.2129482257043027e+00
      -4.5853356261577671e-01 -7.4967342573122131e-01
      9.2908909594928013e-01 -4.4329193776266804e-02
      6.1399233005402121e-01 4.3297150774448373e-01
      4.1810224685116826e-01 2.7702776189610490e-01
      -7.0127693298212523e-01 -1.0189419595445606e-01
      -3.6351289069145376e-01 -1.3861289402898169e-01
      -8.5348890448267961e-02 -4.6206492348451866e-02
      3.8579085560366311e-01 -1.7429116060314381e-01
      -2.9319971985353355e-01 -2.9077823255094987e-01
      -1.2228031306115077e-01 -1.2106062597102742e+00
      2.3273002264331649e-01 -4.8780213771217257e-01
      -4.3935801863660490e-01 -6.4112857489215913e-02
      8.6033542678753083e-01 -1.0430716122056882e-01
      2.9158275423057888e-02 9.2506296660610277e-01
      -2.1379924549727709e-02 -8.9110098742832955e-01
      1.6131051293131438e-01 1.0005429884883748e+00
      4.5505935869746772e-01 -5.6540904366189748e-01
      6.6711730590823226e-01 -3.0064046777472109e-01
      -5.0156444643588038e-01 6.1600302435340015e-01
      -2.7482202472087924e-01 2.5463714877185045e-01
      5.8325862092871894e-01 1.3138561754281142e+00
      -8.4991853047172022e-02 -4.2870968567148032e-01
      5.7945609952762178e-01 3.8645753905018265e-01
      -6.0230091050696079e-02 7.4485192885666143e-02
      1.9022467254081517e-02 3.6118499317612013e-01
      7.4702014051197063e-01 1.2405215872816583e-01
      -1.1400713069904396e+00 1.6248443364218024e-01
      -5.1186836364846788e-01 -3.7951797817076016e-01
      -2.3684765536392874e-01 4.8579071192826373e-01
      6.8185260875034504e-01 -8.2563646889437722e-02
      -4.0672005531716166e-01 3.9153978247348641e-02
      5.1343647171108475e-01 -2.1037553433827791e-01
      -1.6698720590327071e-01 -1.1320658993881746e-01
      -1.6985608685547011e+00 -7.0287440922989575e-01
      1.1842677417513310e-02 -2.4614520415707941e-01
      4.2266270837153019e-01 4.1842442159262849e-01
      4.5215525458201150e-01 5.8874941125443736e-01
      -8.2418962173639712e-02 1.1242648994669616e-01
      -2.6177583052380965e-01 -6.3314221661083891e-01
      3.9052949408690468e-01 -8.0536494709364692e-01
      3.2367310009740496e-01 2.1437532848948826e-01
      5.7271391800109139e-01 4.7385344760859932e-01
      1.2111571433415742e-01 -4.6232833988177069e-01
      2.5884586423860406e-01 -3.4133174672083338e-01
      -8.8504134847887189e-02 -4.2222670750957987e-02
      3.1981766697469527e-01 -7.2890656213229754e-01
      9.0724710817528231e-01 5.6110125626038863e-02
      -3.0241980013135039e-01 -3.2681683455370036e-01
      7.0446762875448155e-01 -2.0272090272857823e-01
      2.8323906984382963e-01 -2.4967548094181827e-01
      -3.2731883856933908e-01 -7.0860645527060828e-01
      -7.0418455335001948e-02 -8.8809538522673004e-01
      -1.2947095538315525e+00 6.5715770502242879e-02
      2.8106020861394188e-01 4.3804824279697688e-02
      1.8082728777603009e-02 2.0856807941208602e-01
      -6.5912973692581689e-01 -9.9053218337127424e-01
      2.0641395236909388e-01 1.9262737120534845e-01
      -2.0252333470036080e-01 1.1666071554108527e-02
      5.5746918559874337e-01 -3.0995722281525140e-01
      -1.0855134072003400e-01 4.3583599508302978e-01
      1.8758107000596411e-01 -2.1825468409615367e-01
      1.5938225603079717e-01 -2.3037833256347778e-01
      -7.3572780728518183e-01 -1.3963282735466293e-01
      2.4504365054153837e-01 -3.7981677279549159e-01
      -2.5482383144327787e-02 3.8175423572657163e-01
      -5.0269285899623195e-01 2.7428353719481302e-01
      -2.4009868696066564e-01 1.2900172138177057e-01
      2.7804289536618654e-01 5.2444063255648077e-01
      4.8700406299514876e-01 -2.8877474702515793e-01
      -4.6312340830485338e-01 -6.1829982437728948e-01
      -1.2066530849409778e-01 -2.9363926116616171e-03
      -3.7263373004563333e-01 -2.7420512846305766e-02
      2.5752345746434596e-01 -1.2733559793790489e-01
      -4.0334809856942910e-01 4.1858424902856456e-01
      -4.3910301472215407e-01 -2.3326333233698340e-01
      -2.7733990795343616e-01 -5.7649525225343479e-01
      -3.7980565492986851e-01 6.5662598934928695e-01
      1.4697721978377423e-01 -2.9875693699094713e-01
      -7.8035262649504042e-02 9.1596485538677908e-01
      2.6034106651915057e-01 1.3936202425947505e-01
      -1.4862283782529062e-01 -1.8128525550402166e-01
      -1.4442417470065391e-01 -5.0264705481656535e-01
      3.8318813359965664e-01 9.5200224736011183e-02
      -6.3521528724022325e-01 7.0370822386435536e-02
      7.1246893017029966e-01 3.4117771885090026e-01
      3.7655434475916738e-01 -2.2507520663149849e-01
      5.7150839420725275e-01 -4.8425789472428304e-01
      5.1766035820881684e-01 -5.6963711997424123e-02
      1.3987679615984508e-01 1.8135132950103744e-02
      1.4779046862692935e-01 -3.2793947015599886e-02
      9.3659789969057841e-02 -3.1785560674660873e-01
      3.2860115002267549e-02 9.9742043682570503e-02
      -2.6851661256485626e-01 -3.6189788854568472e-02
      7.6011067512597272e-02 3.0568201080440945e-02
      -5.0574698104430205e-01 -2.4460338297446835e-01
      3.0896983218153328e-02 -4.5556717912015149e-01
      4.1942533779489349e-01 4.4323014518879988e-02
      1.4281936160058273e-01 -2.2996396232662791e-01
      -1.0572907671499165e-01 3.8850129965234670e-01
      -1.2568531203711358e-01 2.0143137996705962e-01
      -4.8683072916091791e-01 -6.4466268926499393e-01
      2.3767565070400112e-01 -5.5394308956788252e-01
      2.6439118654867272e-01 2.5721978684999203e-01
      -1.7662729750884404e-01 -2.0369102166749192e-01
      1.9401378413601394e-01 2.4887389662030099e-01
      4.4012882147755811e-01 7.1996159239654148e-02
      1.4648108221455786e-01 -5.6860721667620760e-02
      -2.4126488258452747e-01 2.4722224483287716e-02
      -3.2661225450326947e-01 -4.2190132839015615e-01
      7.6959753414189105e-02 -2.0658606644698954e-01
      -8.8001954414579753e-02 3.6392076297119647e-01
      2.4074815912502021e-02 4.7400901644288694e-02
      -1.6788203624981662e-01 -2.3793365916040971e-01
      1.8471602908766340e-02 -3.8679297477802926e-01
      -3.5899652655818992e-01 2.3987779759473293e-01
      -2.0159517779058234e-01 1.5267613242428107e-01
      -4.8466941637648038e-02 -5.2258060446966936e-01
      1.5777357238763967e-01 -1.7216118034271433e-01
      -6.6669812470058820e-01 -1.8717487572763208e-01
      -1.1618849682510790e+00 2.1203374276694273e-01
      5.3383326256020014e-01 8.2615556454271788e-01
      -1.8211173727019386e-02 -2.3854023324412985e-01
      4.0990227602598306e-01 5.1575325740452727e-01
      1.2519327878792583e-01 -1.0730447999088598e-01
      -1.0878089158267867e-01 4.4702578354751582e-01
      -6.5096801040806077e-02 2.2741431994896297e-01
      -6.1452326892691378e-01 1.1518386109753342e+00
      -4.8274348432720970e-01 -1.2615641744623668e-01
      1.8444796168627461e-01 2.8336512458408358e-01
      -5.6337564550487296e-01 1.9929981314490441e-01
      -8.9740413663017798e-02 2.6949718148560475e-01
      -2.4371380339619744e-01 2.9242435803709083e-01
      -8.5306201669097637e-02 -4.4796878833210019e-01
      -3.5654094715101635e-02 2.7840025046933647e-01
      4.9524151160523427e-01 -1.7927092925214060e-02
      5.0424942253173954e-01 -2.4237732745449003e-01
      -3.1885642198774067e-01 7.5704799713983362e-01
      3.0071653769213386e-01 -2.4896133736207315e-01
      4.5070522720463224e-01 -2.1616261988666682e-01
      3.2041988831720347e-01 -2.6449938792303085e-01
      1.2957573674430189e-01 -3.8076725901591707e-01
      -1.7103360187633923e-01 3.2731364889564973e-01
      -9.1122465730693825e-02 1.5542987746303630e-01
      3.6337746339037608e-01 -6.9237669617393538e-01
      1.9040480453005734e-01 -2.4658640538228857e-01
      -8.3165100355048927e-01 -1.5618069417087052e-01
      -2.8237353221146153e-02 1.9209962268057587e-02
      1.9309631066080837e-01 -5.1648986117298878e-01
      7.9111052038998070e-02 -3.1481002381347800e-01
      3.9045639311999886e-01 -1.9963125494238482e-01
      3.4249683365184064e-01 -1.1149468742009278e-01
      -7.6994536923388895e-02 -9.9793826532434196e-02
      1.8026759688253921e-01 3.8127857717919567e-01
      -1.9967818340721316e-01 3.7032959402702548e-01
      6.8359687974032002e-01 6.0079197111880922e-01
      4.9204270802791494e-01 -5.3332766314179780e-01
      -4.7918478821123162e-01 -6.1345133670851171e-01
      5.1992138907707641e-01 1.4455286432992309e-01
      4.0695188431339969e-03 3.1038530960888644e-01
      1.9030395731025332e-01 3.3438804437586972e-01
      -9.5525499887114146e-02 1.7458562183241363e-01
      -5.5336774072510940e-02 -4.2854108616678377e-01
      -4.9199222895755268e-01 3.9121685933246908e-01
      -2.8479169932045068e-01 -1.4013917657460555e-02
      2.4364795664658259e-01 1.7566819194417563e-02
      -5.2221087527181320e-01 -1.4550294608312292e-01
      1.4357929255683294e-02 8.3477995380073708e-02
      -6.1069768899601105e-02 5.3679144356886099e-01
      8.1186861757060758e-01 2.2707146935310324e-01
      3.3431909991874131e-01 2.9449361349149467e-01
      -1.3514705359455972e-01 1.3667090689232542e-01
      -4.8768192648108097e-02 -2.9161755414171509e-01
      1.1454180774687293e-01 3.7541774548731566e-01
      6.8168995497322094e-01 -1.7249332047389068e-01
      1.1253488321684223e-01 8.0322840552075087e-02
      -2.1681501943514751e-02 7.0960963802438062e-02
      -4.8247641744049524e-01 2.4141995908987965e-01
      2.9864522149573025e-01 7.5215475491932943e-02
      1.9779043834491770e-02 1.7937006216377985e-01
      -1.1022163890614320e-01 6.1087998831860335e-01
      3.1814354904144204e-01 2.3421744339640566e-01
      6.1981782294340992e-01 4.6069824411440813e-01
      -1.3611049324866623e-01 -5.5776515042181140e-04
      -1.5098670730454558e-01 1.5316562515098045e-01
      -1.6569700708488247e-02 3.7606464436563636e-01
      1.0086080297701445e+00 -2.4233226586715376e-01
      1.3271749474288580e-01 -5.9376519488010615e-01
      2.2363938118437923e-01 3.3091571348600318e-01
      1.8480215266878622e-01 -4.1187787035685608e-01
      4.9569500556820795e-01 3.6554939237290451e-01
      -8.7854037892711262e-02 6.0284616829814719e-01
      -5.7375072351279610e-01 2.7210716031282828e-01
      -5.0818473920270935e-01 5.7524900209206142e-01
      -1.3132731587498941e-01 2.5288345193982770e-01
      -2.8548235744075190e-01 1.9973495058381152e-01
      1.1673007842082371e-01 6.4401922761103070e-02
      -3.4998874521045636e-01 2.3553696985210226e-01
      -1.8922909355787765e-01 -4.2742931732540207e-01
      3.3101566158497153e-01 5.9385331798758989e-01
      6.6424457313184626e-01 -3.7789988893344562e-01
      -7.4420579972581113e-02 -3.2569433823837057e-01
      -8.5548333200502882e-02 -4.0293291054389591e-01
      -5.5058164846817459e-01 3.5407955026874283e-01
      1.2401678646327723e-01 -1.4715001345192854e-02
      4.4143248830051807e-01 9.8001669799388874e-02
      -3.9839131947389483e-01 -8.4730948612579515e-02
      9.6492950149527024e-01 -6.8353037273863448e-01
      4.5751020097978862e-01 -4.3157471213473564e-01
      -7.6441850240761243e-03 -4.9905916610613048e-02
      -1.3521929329950427e-01 1.6727098321597456e-01
      -4.2194229586518928e-01 3.1835674231671057e-01
      -1.3534963401908973e-01 3.3944610116532226e-01
      -2.5472565262943569e-01 -1.4471331090792378e-01
      7.0296387583246511e-01 -9.7371201650265665e-02
      3.3377137956245256e-01 -5.3159789228407972e-01
      3.4213437396543239e-01 7.6387794253101704e-01
      1.8745786420421409e-01 1.7970818825405957e-01
      9.3396143178491015e-02 -3.0193232990061597e-01
      -5.7530044575727246e-01 5.7990667280202912e-01
      -9.5299229874883148e-03 5.7304502997826423e-01
      -2.1985906599118765e-01 7.0667342199680616e-01
      -1.6604960866380999e-01 2.7966260390336484e-01
      6.3223890848061759e-01 -3.9649487805855665e-01
      3.4782734448856673e-01 -4.4693277955764676e-01
      -7.7911621264411410e-02 8.5606962176492556e-04
      4.4001100237245586e-02 -6.9499886078597334e-02
      2.2522727250375155e-01 -1.7742363091420338e-01
      -7.6230055248039363e-01 -7.2467911342191615e-01
      -1.2009343615825493e-01 1.2498671761866163e-01
      6.9657624749415087e-02 1.3568117705339167e-01
      -4.5748119177596419e-01 1.6619252425281891e-01
      -3.0299930261705277e-01 1.2584497022772273e-01
      1.6863286502310029e-01 7.4031077907098342e-01
      7.2866600188558517e-01 1.6657811501116637e-01
      3.8912876890453912e-01 -4.0950495014578653e-01
      -4.8754693600881316e-01 6.5272401229348104e-02
      2.7480127217974887e-01 -4.9936361571174141e-02
      -1.6869398213572590e-01 5.5232540882664605e-01
      -4.4885307409633746e-01 1.2851995982482770e-01
      -3.8784971104369165e-01 9.1031790488731362e-02
      4.2764862196131237e-01 -2.5901520573307157e-01
      -1.3988653230450149e-01 -1.3317334265199307e-02
      -9.1188921167313974e-02 4.5067132557564316e-01
      4.5500549865782758e-01 -2.1533531797157157e-01
      -6.7892225589443096e-04 -7.8730104899005185e-02
      7.1840112136681922e-01 -1.1581859109534520e-01
      1.1053651330546074e-01 8.0114558750255388e-02
      2.1331776069757349e-01 1.3199457842962703e-01
      1.2062728787511814e-02 -2.7742599844823440e-01
      -5.8472115906134527e-02 -2.5945184660327658e-01
      -8.2485236312652654e-01 -1.4014823454411157e-01
      -5.3244853537232650e-01 -1.2479982802358090e-01
      -1.2034912129683368e+00 -1.4315818675910674e-01
      5.6424361628828734e-01 6.4354431565385131e-02
      -2.5549159871846006e-03 -5.6771938693094166e-02
      -2.7183432676461855e-01 5.0372714642274563e-01
      -5.5203528944657465e-01 7.3226181893786324e-02
      5.5481691447810377e-01 3.4802719796659459e-01
      2.7860326564104115e-01 -2.4863340590288993e-01
      6.0116190678789461e-01 1.1524317745426699e-01
      -4.6650271284183492e-01 3.3784958374319740e-01
      -3.7312860432976025e-01 -1.4034526319074919e-01
      1.7584900119814395e-01 -3.1205741224116540e-01
      3.7402933191979754e-01 -4.8755961223789451e-01
      2.3253280492107278e-01 3.9669301539731062e-02
      -2.1555326892731902e-01 -2.3387808088991635e-01
      2.3761499964658137e-01 3.6277271803005068e-01
      3.3911805205707185e-01 4.2189854496970686e-01
      -3.1961401737077944e-01 -2.5460416229602989e-01
      -2.3049381535656902e-01 -1.5808291724538984e-01
      -1.6642883665948879e-01 -3.2797092290443780e-01
      -7.2706368314489700e-01 -8.5368182656724168e-01
      2.0568564513829664e-02 4.3967646957770140e-02
      -5.4484059841771314e-02 1.4393988480670411e-01
      2.9224241012139723e-01 1.6447462755347994e-01
      1.9052915069502202e-01 1.9297531602816320e-01
      -2.6723286450324540e-01 4.2283114432816898e-01
      -1.2268040272069591e-01 -5.9799021410038566e-01
      -4.9632303295696628e-01 -1.7162659789809931e-01
      -8.4773146535301339e-02 1.3171378959688365e-01
      -3.9082096890791029e-01 3.3225265073868709e-01
      3.7099624221620020e-01 4.9916049947186930e-01
      -1.6167726613525985e-01 -4.3817539089980434e-01
      1.1928000686368094e-01 -1.3266583320688310e-01
      1.9556087143043807e-01 2.5937039262812028e-01
      2.4011762605347198e-02 -2.8324731469341990e-01
      -6.1036873645894350e-02 -1.1710526254446094e-01
      6.3746919271285296e-01 3.4783108023039827e-01
      -5.5383790842403269e-01 -3.8394638198700531e-01
      2.7853988377003541e-01 4.8615788052552200e-01
      2.4680911028753713e-01 3.0507632624338591e-02
      -7.8703530234056651e-01 4.3220116040444134e-01
      5.6261258779784884e-01 -9.2542579602886185e-02
      7.7343197300576505e-01 -3.1829653902135219e-01
      2.7089682402392129e-01 1.7101243659699172e-01
      3.0797129074393875e-01 8.5232785313140991e-01
      -6.1913173855261727e-01 4.1993265764349141e-01
      1.6278427336516358e-02 -6.6401815021711344e-02
      6.9304500762242982e-01 1.5770892805507966e-01
      3.1076683938487004e-01 -6.2522410315152632e-01
      9.0987915730149649e-01 -1.3702465750276080e-01
      -5.9357489751382830e-01 3.1312149036962061e-01
      -9.6455608162508255e-02 1.5875018382863812e-01
      -2.6122101479627186e-01 -6.2795152458000114e-01
      5.4245433625938266e-01 2.5115172504776712e-01
      -4.2717495833557029e-01 2.9229021715924042e-01
      5.2051765068369682e-01 -1.8525420219712041e-01
      -4.9255703205741563e-01 7.5414663218379590e-04
      5.8094015679153919e-02 7.9179965706757616e-01
      -4.7532897352298442e-01 -2.1629902210126511e-01
      -2.8478758372889845e-01 -2.2695996460782206e-01
      2.2349467885490401e-02 1.3331287149712961e-01
      -2.3108869401738286e-01 -6.4138707648754467e-01
      8.9073164991639842e-01 3.4210189494146337e-02
      8.1931308102903910e-01 1.1496163910853192e-01
      -2.7541114896588886e-01 4.1326989869528813e-01
      3.4953450810444958e-01 3.3429414492038301e-01
      -1.9370027872331999e-01 -3.4037835207496980e-01
      2.8038724713019952e-01 -1.6890257022517105e-01
      6.3886871296705405e-01 -5.2491298191780034e-01
      -2.1105172078322562e-02 -2.2732925957426632e-02
      3.8730634717634776e-01 -2.2772015598905873e-01
      -2.2171223021425016e-01 5.4437630365835050e-02
      -3.5586798976105222e-01 -1.9370215997712430e-02
      -2.4116991031549045e-01 -1.3685172503191809e-01
      -3.1151272132381974e-01 -2.9536815714864723e-01
      -1.5958409565070911e-01 8.9270704924839028e-01
      -2.6394555883505527e-01 -3.5495111347221381e-01
      2.6027623144781954e-02 6.4023488514351312e-01
      2.5449558696910757e-01 9.1652561910947936e-02
      6.2809263810597138e-01 2.7855915744281273e-01
      1.2614888859419146e-01 3.2168301768475092e-02
      4.3212537122494632e-01 2.0892267131772790e-01
      2.4128026982446374e-01 -1.5231515176308080e-01
      -2.9788546365316759e-01 -4.5349779955279618e-01
      -2.8218238491603344e-02 8.1238572448734825e-01
      2.1283222625358658e-02 1.5172383113533203e-01
      -1.5149629654740149e-01 -1.9903725002660819e-01
      -2.7413016735034484e-01 4.9813602780123084e-01
      -7.8100411005737536e-01 5.4569408567659916e-01
      -4.1532166261750236e-01 7.8202298210606147e-02
      -6.7355583235434413e-01 -2.1440202471290440e-01
      -2.5836042859182656e-01 4.4257644209733255e-01
      5.6517794221592610e-01 3.5967431852593301e-01
      4.4278073661408812e-01 -4.8636839116343195e-01
      7.9605308650100251e-02 -1.3919262185361314e-01
      2.8401570113639341e-01 4.8341055299757946e-01
      8.2101114997422131e-01 4.9156850667198743e-01
      -3.1759437949731834e-01 3.4753315893451880e-01
      5.9769425178104729e-01 3.5297957884673820e-01
      3.4334922987742718e-02 3.5644100840142307e-01
      3.0473207274827513e-01 -9.8454542200775930e-01
      -5.7806447206619938e-01 8.1196576940956028e-03
      4.1504391521656320e-01 -4.0660047787746761e-01
      6.8010372139032882e-01 -5.1839668936623551e-01
      -4.0445981837427625e-01 6.6082606739720315e-02
      -2.2164137717739802e-02 2.0353422631120374e-01
      -2.8812828295220222e-01 -2.5703562167309352e-01
      -7.8783078746741925e-02 -1.6860791497029676e-01
      -9.8214605141921041e-02 -3.2819415967876259e-01
      2.7290920016627979e-01 5.5078332323597534e-01
      -7.4191502125219344e-01 9.4950950976452098e-01
      1.9497947130687729e-01 -2.6335114412725408e-01
      1.3057336658255267e-01 -6.8052481525662609e-02
      3.5501173699714839e-01 -3.1183271403117047e-01
      -1.3858100967669224e-01 1.8119333757015500e-02
      5.1360848325051722e-01 2.4682261471576750e-01
      8.6120310374424547e-01 -3.2321857857147684e-01
      -2.8205274575288558e-01 -1.1226934709312278e-01
      -1.2934598971616789e-02 -4.3071892106407289e-01
      -3.0235312710746354e-01 1.4276420451010285e-01
      -6.4656831575428819e-01 1.9063801284104950e-01
      -4.6420700978769813e-01 4.9209261251615055e-01
      -2.3520328930129378e-01 -9.5024294990957131e-02
      -2.1839830452096645e-01 3.2504899692439448e-01
      3.0178459722510537e-01 -5.6439085232659406e-02
      2.1905350353774111e-01 5.9259153611027160e-01
      -1.7677263784553101e-03 2.7385123901530689e-01
      -3.6969322642467756e-01 -9.8214873624958357e-02
      -2.1188419169661879e-01 -4.7674979752343022e-01
      -5.6909658998766322e-01 8.5521768625901673e-01
      -1.4257075359020577e-01 3.5661059626593633e-01
      -1.1365379627830961e-01 -8.5002947840711243e-03
      4.4236296374445472e-01 -3.2580197869304151e-01
      -9.1567861040556942e-01 -1.8452505040846601e-01
      3.4367924625198515e-01 2.3752548151819680e-01
      3.2028855908268206e-01 8.8224734587830492e-02
      2.7936880784207246e-01 5.4314090393464909e-01
      -2.1539586994509780e-02 -6.4156517392875215e-02
      7.2963636616361156e-04 -1.6407289089907259e-01
      -3.0586758323816104e-02 4.9843708069525960e-01
      -7.1238164138778232e-02 -7.1043495277221924e-02
      1.5378784658403895e+00 2.9165201237852646e-02
      2.7114657766750422e-01 7.5196350967898951e-02
      -4.6714911901717870e-01 -1.8930795019807867e-01
      5.8766288880326778e-01 -4.4467272430517757e-01
      -2.8872701587135513e-01 1.0235416278200256e-01
      -8.8756905683611872e-02 -4.7519036591482916e-01
      2.6104465926815967e-01 1.5400793895147690e-02
      1.0327492951036141e-01 -6.6559933102384861e-01
      2.4109778538064722e-01 -4.6017240086455674e-01
      -5.2795823479925397e-01 7.5581466927394009e-02
      4.4579322224354068e-01 4.5374952337414193e-01
      -3.4546861408934426e-01 5.0558582217298353e-01
      6.7260041423452710e-01 7.4402996138302724e-01
      3.5625533122481690e-01 -3.3868768116859294e-01
      8.1926373140014594e-02 7.2586468324441600e-02
      -2.4226128368005123e-01 4.0621641010930395e-02
      4.8528077978304179e-01 5.5044732295374099e-01
      1.8021715658875331e-01 8.5548276625271355e-02
      -7.0470292742500065e-02 -2.2563341736750955e-01
      -1.8142237355778124e-01 4.7353291522608205e-02
      1.5153576324298645e-01 -1.9560865257526272e-01
      2.5736266477132236e-01 7.1366004524102376e-03
      4.4795386841843571e-01 -3.3041544133242495e-01
      1.0266253802558332e-01 -1.0581496635840244e-01
      -3.4385812061714421e-01 2.0682604460572462e-01
      4.6432313650191182e-01 -2.9467207004509832e-01
      -8.2917658999780680e-02 -4.1233011435928045e-03
      -8.8493295674145309e-02 4.8635298958397233e-01
      -3.3727887171090071e-01 9.4092582257173152e-01
      2.0728777568676762e-01 -2.9911288484254406e-01
      1.7032118164945079e-01 -4.0181138692418121e-02
      7.2808155188106083e-01 2.6641492525271548e-01
      2.0234970501820485e-01 -1.5250484888655308e-01
      2.1374742174402511e-01 -1.5722844249985563e-03
      4.6543459796951148e-01 -3.8210550510372471e-01
      1.2124718278095799e-01 8.2500062920894249e-02
      2.0521275247362827e-01 -2.3265538616726719e-01
      1.2505955021983151e-01 -2.8998704093513950e-01
      -4.8425823322250972e-01 2.5455024552578198e-01
      -1.3643647695561104e-01 1.8810091324436273e-01
      -5.0793181937202940e-02 9.7991927661630784e-02
      1.7202370641901069e-01 -9.2209425122975017e-02
      -2.7248158060136699e-02 -1.4764985800094405e-01
      4.3792857699951437e-01 2.2407329625488470e-01
      -1.7226732715381834e-01 -2.5215312159028541e-01
      -1.6143303916873863e-01 2.4381690802077832e-01
      -1.5054820330173246e-01 2.2828215702292295e-01
      -3.9958444310505326e-01 6.4422245091161665e-02
      3.6373524890729508e-01 1.4309227533420418e-01
      5.1176078157946746e-02 -1.4906244776884478e-01
      5.0341342829300006e-01 -1.4089426772350194e-01
      1.9050877047596970e-01 -8.1071503563435876e-01
      -3.7262407792035834e-01 -2.5578849106323812e-02
      3.6863217243551472e-01 -3.0837117993187502e-01
      5.0258499857049987e-01 -1.9067942944913319e-01
      -1.2693128836003775e-01 -2.8443515911313971e-01
      7.5849610374889853e-02 4.1348808040246493e-01
      3.9346361674420578e-02 -6.7728665838221547e-01
      7.0221744288092094e-03 3.7942734406942610e-02
      2.1625762854026323e-01 -2.3610333244579843e-01
      -4.8318397322099288e-01 -1.5039365268327229e-01
      -2.9839453051106823e-01 -3.7051204974373436e-01
      -5.3573096787668317e-01 3.6890704686401221e-01
      7.5272980867488501e-02 -2.2584704185460311e-01
      -8.2287463622812002e-02 -5.1705965701591883e-01
      3.7741907222093762e-01 -4.5149860185297513e-02
      2.3258133956339988e-01 -2.1959753889399639e-01
      -2.0036676075686208e-01 4.9039953659858920e-01
      -5.2165695296233472e-01 -9.6394772613789426e-02
      -4.2472744294773512e-01 3.1213001465545986e-01
      -1.0681131382656173e-01 1.7281029308745219e-01
      -5.9728505570004586e-01 -2.5337206540360480e-02
      -5.8364174197145491e-01 -4.2831184718051857e-01
      -8.8639025268537966e-02 -6.7405669837349735e-01
      -2.7628904512730004e-02 -1.6915568623548236e-01
      -5.3954947410636822e-01 9.6403395470466807e-02
      5.1516636069369326e-01 6.1173919214393524e-01
      3.5643971483419640e-01 -4.0945542021524794e-01
      3.8106303913994849e-01 1.1532725326280742e-01
      -4.4890868918495352e-01 -1.1458241862678507e-01
      1.1710200138023757e-01 -3.8956394215925250e-01
      4.1207744800081614e-01 1.8776191854010610e-01
      -2.0644404676072858e-01 -1.6030108372447818e-01
      2.4833121873727393e-01 -1.9942257925181275e-01
      7.9983066594197447e-02 2.5107963101702457e-01
      -2.8896692830179382e-01 -1.9283492652928408e-01
      8.5427064388878049e-01 -1.9308566107928876e-01
      3.3278857009348300e-01 3.3510632347969593e-01
      -3.2370932860719059e-01 -2.1958039057578052e-01
      -6.7857614296346325e-01 1.0190354543567766e+00
      4.4495932976162600e-01 5.2180585709799587e-01
      5.0565367465301192e-01 4.0711842341573767e-01
      -4.8833810252121390e-01 -1.3055820769480153e-01
      4.6491225516363796e-02 -3.4263352934063895e-01
      -4.5197055001634380e-02 3.2802261668206856e-01
      3.4694650256788290e-01 -1.8559757691771017e-01
      -3.3493252182720273e-01 5.8157355414825507e-01
      3.5905525511042818e-01 -8.5707245235850812e-02
      -3.4886526682764624e-02 1.1148930024079423e-01
      5.4669682430378630e-01 -1.0465786306799468e-01
      1.3241964740391829e+00 2.6272144128761543e-01
      1.8916412618687423e-01 -4.1066418863800608e-01
      1.1781407651352246e-01 2.8933329119522028e-03
      -6.2935258815786066e-01 -3.8735207022049850e-01
      4.5434671950590710e-01 1.1885309347400350e-02
      9.4835928634680780e-02 -1.4473643147820539e-01
      -5.6303031509682366e-01 5.8952944431050747e-01
      4.2764849057078398e-02 3.4825409182936623e-01
      -1.2094686131439888e-01 -2.8162006339311585e-01
      -4.4751052728994639e-01 -9.0068268688564032e-02
      1.4409375799068291e-01 -7.8130728614206488e-02
      1.0273926950798638e-01 -1.0323634209654213e+00
      -2.2276909599208600e-01 2.6133841430816821e-02
      2.5767262127354512e-01 5.7170785334756014e-01
      -4.5797174628803544e-01 1.5855241087864094e-01
      -2.0724320495950316e-01 -1.0056410595190794e-01
      5.1542086753255556e-01 1.3739232110318342e-01
      3.1740534931020808e-01 -2.2705555980122247e-01
      1.1562002792217707e-01 -2.6922580893632941e-01
      -2.2484985691048753e-01 1.8256796856431939e-01
      1.0840812045682097e-02 2.6145816209614609e-02
      -3.9006921060214844e-01 -1.1917868509270368e-01
      -2.2021955296591626e-02 4.8970615291556246e-01
      4.0373483364136964e-01 2.1822743656694907e-01
      -3.8029294150066978e-02 2.8684411268595228e-01
      -7.6354839564562391e-02 6.8014311935126553e-02
      -6.2564305201488668e-01 -9.0601511298022089e-02
      5.6715811769065572e-01 1.3046952564295664e-01
      1.8172722932331409e-02 -3.3640843112188545e-01
      7.1246556781550074e-01 -4.2680199968566684e-01
      -8.0703653273249298e-02 9.7186065266579164e-02
      -4.1687596624657225e-01 1.6823714165274289e-01
      -4.1556654416576183e-01 -7.4406435611268629e-01
      4.9024324492118126e-01 1.5549181211726840e-01
      -3.6632838318070834e-02 2.5383877279497868e-01
      -3.6547856368019194e-01 1.0730863756612298e-01
      8.7180171765954051e-02 6.0962198620507690e-01
      -7.0189969531791896e-01 -4.2614073548928474e-02
      -2.4469448139663980e-02 -1.7092952657568880e-01
      -3.9021041198168838e-01 -1.7922833994178902e-01
      3.8025000659826516e-02 5.4384619311141219e-02
      3.1746966951062316e-01 2.7929036718558636e-01
      1.2580055244231361e-01 -8.6370131207950396e-02
      -7.5574102310764793e-02 -2.7147181289512934e-01
      2.6373884487196286e-01 4.2500324258801786e-01
      4.8770048956792808e-02 3.3449488810775120e-02
      -1.2462121397572190e-01 6.2962174859821196e-02
      2.5220228646237108e-01 2.2793308733331377e-01
      2.1519973485358115e-01 -2.8061338686704995e-01
      -2.2166885748513690e-01 4.1714377640401264e-02
      1.6455095117896096e-01 3.4477907013030759e-02
      1.1871219236515144e-01 3.9781899088682549e-01
      5.5384104615775320e-01 4.8471128145955877e-01
      1.6305048692305929e-01 -3.8248674232445551e-01
      2.0179772344105001e-01 2.1803880903088790e-01
